{"learner":{"attributes":{"scikit_learn":"{\"_estimator_type\": \"classifier\"}"},"feature_names":["Number of sexual partners","Num of pregnancies","Smokes","Smokes (years)","Smokes (packs/year)","Hormonal Contraceptives","Hormonal Contraceptives (years)","IUD","IUD (years)","STDs","STDs:cervical condylomatosis","STDs:vaginal condylomatosis","STDs:syphilis","STDs:pelvic inflammatory disease","STDs:genital herpes","STDs:molluscum contagiosum","STDs:AIDS","STDs:HIV","STDs:Hepatitis B","STDs:HPV","Dx:Cancer","Dx:CIN","Dx","Hinselmann","Schiller","Citology","Age_log","First sexual intercourse_log"],"feature_types":["float","float","float","float","float","float","float","float","float","float","float","float","float","float","float","float","float","float","float","float","float","float","float","float","float","float","float","float"],"gradient_booster":{"model":{"gbtree_model_param":{"num_parallel_tree":"1","num_trees":"100"},"iteration_indptr":[0,1,2,3,4,5,6,7,8,9,10,11,12,13,14,15,16,17,18,19,20,21,22,23,24,25,26,27,28,29,30,31,32,33,34,35,36,37,38,39,40,41,42,43,44,45,46,47,48,49,50,51,52,53,54,55,56,57,58,59,60,61,62,63,64,65,66,67,68,69,70,71,72,73,74,75,76,77,78,79,80,81,82,83,84,85,86,87,88,89,90,91,92,93,94,95,96,97,98,99,100],"tree_info":[0,0,0,0,0,0,0,0,0,0,0,0,0,0,0,0,0,0,0,0,0,0,0,0,0,0,0,0,0,0,0,0,0,0,0,0,0,0,0,0,0,0,0,0,0,0,0,0,0,0,0,0,0,0,0,0,0,0,0,0,0,0,0,0,0,0,0,0,0,0,0,0,0,0,0,0,0,0,0,0,0,0,0,0,0,0,0,0,0,0,0,0,0,0,0,0,0,0,0,0],"trees":[{"base_weights":[8.9573297E-7,-1.8291565E0,1.846917E0,-1.9417897E0,1.0734838E0,-7.0241265E-2,1.8691561E0,-5.964614E-1,-7.380645E-1,4.3532407E-1,5.045973E-2,1.8839139E0,6.310057E-2,3.561688E-1,-4.7880092E-1,9.3054163E-1,1.9055016E0,4.2401603E-1,-7.0241265E-2,5.762292E-1,2.2633831E-1],"categories":[],"categories_nodes":[],"categories_segments":[],"categories_sizes":[],"default_left":[0,0,0,0,0,0,0,0,0,0,0,0,0,0,0,0,0,0,0,0,0],"id":0,"left_children":[1,3,5,7,9,-1,11,-1,13,-1,-1,15,-1,-1,-1,17,19,-1,-1,-1,-1],"loss_changes":[8.7403577E2,4.4581024E1,6.395569E0,5.543579E0,1.6358304E0,0E0,2.724701E0,0E0,1.2217475E1,0E0,0E0,8.2492065E-1,0E0,0E0,0E0,3.001894E0,7.026062E-1,0E0,0E0,0E0,0E0],"parents":[2147483647,0,0,1,1,2,2,3,3,4,4,6,6,8,8,11,11,15,15,16,16],"right_children":[2,4,6,8,10,-1,12,-1,14,-1,-1,16,-1,-1,-1,18,20,-1,-1,-1,-1],"split_conditions":[3.1257481E-3,1.5158801E-2,2.8501089E0,2.823267E-4,9.610703E-1,-7.0241265E-2,5.2621727E0,-5.964614E-1,8.738901E-1,4.3532407E-1,5.045973E-2,2.723924E0,6.310057E-2,3.561688E-1,-4.7880092E-1,2.583656E0,3E0,4.2401603E-1,-7.0241265E-2,5.762292E-1,2.2633831E-1],"split_indices":[24,21,26,25,21,0,1,0,25,0,0,27,0,0,0,0,8,0,0,0,0],"split_type":[0,0,0,0,0,0,0,0,0,0,0,0,0,0,0,0,0,0,0,0,0],"sum_hessian":[2.5672055E2,1.289852E2,1.27735344E2,1.2448572E2,4.4994836E0,1.2498566E0,1.2648549E2,1.1923632E2,5.2493978E0,2.7496846E0,1.7497993E0,1.2523563E2,1.2498566E0,1.4998279E0,3.7495697E0,3.7495697E0,1.2148606E2,2.4997132E0,1.2498566E0,1.1923632E2,2.2497418E0],"tree_param":{"num_deleted":"0","num_feature":"28","num_nodes":"21","size_leaf_vector":"1"}},{"base_weights":[4.855572E-3,-1.4008344E0,1.4310362E0,-1.4935375E0,8.6573285E-1,-5.8551032E-2,1.4500197E0,-1.5305603E0,-5.6153435E-1,3.6592868E-1,4.8758227E-2,1.4622117E0,5.2640177E-2,-1.7457567E-1,-4.6177068E-1,2.9907703E-1,-3.8246402E-1,7.486061E-1,1.4785899E0,3.465519E-1,-5.8551032E-2,4.472E-1,1.814816E-1],"categories":[],"categories_nodes":[],"categories_segments":[],"categories_sizes":[],"default_left":[0,0,0,0,0,0,0,0,0,0,0,0,0,0,0,0,0,0,0,0,0,0,0],"id":1,"left_children":[1,3,5,7,9,-1,11,13,15,-1,-1,17,-1,-1,-1,-1,-1,19,21,-1,-1,-1,-1],"loss_changes":[4.787885E2,2.6565613E1,3.9426727E0,3.1403503E0,1.1359472E0,0E0,1.5661469E0,1.7059326E-2,7.9504995E0,0E0,0E0,2.4943542E-1,0E0,0E0,0E0,0E0,0E0,2.0017302E0,2.8437805E-1,0E0,0E0,0E0,0E0],"parents":[2147483647,0,0,1,1,2,2,3,3,4,4,6,6,7,7,8,8,11,11,17,17,18,18],"right_children":[2,4,6,8,10,-1,12,14,16,-1,-1,18,-1,-1,-1,-1,-1,20,22,-1,-1,-1,-1],"split_conditions":[3.1257481E-3,1.5158801E-2,2.8501089E0,2.823267E-4,1.8698964E0,-5.8551032E-2,5.2621727E0,2.6143818E0,8.738901E-1,3.6592868E-1,4.8758227E-2,2.723924E0,5.2640177E-2,-1.7457567E-1,-4.6177068E-1,2.9907703E-1,-3.8246402E-1,2.583656E0,3E0,3.465519E-1,-5.8551032E-2,4.472E-1,1.814816E-1],"split_indices":[24,21,26,25,1,0,1,27,25,0,0,27,0,0,0,0,0,0,8,0,0,0,0],"split_type":[0,0,0,0,0,0,0,0,0,0,0,0,0,0,0,0,0,0,0,0,0,0,0],"sum_hessian":[2.3682498E2,1.1927824E2,1.1754674E2,1.14919075E2,4.359161E0,1.2492554E0,1.1629748E2,1.09910774E2,5.0082994E0,2.4108443E0,1.9483165E0,1.1504971E2,1.2477702E0,1.6129464E0,1.0829783E2,1.4477798E0,3.5605197E0,3.6292348E0,1.1142048E2,2.3799794E0,1.2492554E0,1.0920466E2,2.2158213E0],"tree_param":{"num_deleted":"0","num_feature":"28","num_nodes":"23","size_leaf_vector":"1"}},{"base_weights":[6.468748E-3,-1.1970398E0,1.2233852E0,-1.2854095E0,7.201389E-1,-4.886679E-2,1.2423668E0,-3.9617285E-1,-4.5481795E-1,3.1912863E-1,6.2284037E-3,1.2547376E0,4.3956563E-2,2.591689E-1,-3.262646E-1,1.2666717E0,1.4752683E-1,6.264815E-1,1.2833165E0,2.973133E-1,-4.886679E-2,3.879351E-1,1.2776102E-1],"categories":[],"categories_nodes":[],"categories_segments":[],"categories_sizes":[],"default_left":[0,0,0,0,0,0,0,0,0,0,0,0,0,0,0,0,0,0,0,0,0,0,0],"id":2,"left_children":[1,3,5,7,9,-1,11,-1,13,-1,-1,15,-1,-1,-1,17,-1,19,21,-1,-1,-1,-1],"loss_changes":[2.9707465E2,1.820401E1,2.8562622E0,2.2575073E0,1.2118859E0,0E0,1.1665192E0,0E0,5.5286508E0,0E0,0E0,2.7275085E-1,0E0,0E0,0E0,2.2129822E-1,0E0,1.4253371E0,2.293396E-1,0E0,0E0,0E0,0E0],"parents":[2147483647,0,0,1,1,2,2,3,3,4,4,6,6,8,8,11,11,15,15,17,17,18,18],"right_children":[2,4,6,8,10,-1,12,-1,14,-1,-1,16,-1,-1,-1,18,-1,20,22,-1,-1,-1,-1],"split_conditions":[3.1257481E-3,1.5158801E-2,2.8501089E0,2.823267E-4,9.610703E-1,-4.886679E-2,5.2621727E0,-3.9617285E-1,8.738901E-1,3.1912863E-1,6.2284037E-3,3E0,4.3956563E-2,2.591689E-1,-3.262646E-1,2.723924E0,1.4752683E-1,2.583656E0,1.87198E1,2.973133E-1,-4.886679E-2,3.879351E-1,1.2776102E-1],"split_indices":[24,21,26,25,21,0,1,0,25,0,0,8,0,0,0,27,0,0,6,0,0,0,0],"split_type":[0,0,0,0,0,0,0,0,0,0,0,0,0,0,0,0,0,0,0,0,0,0,0],"sum_hessian":[2.0084103E2,1.0098501E2,9.9856026E1,9.685036E1,4.1346507E0,1.2464043E0,9.860962E1,9.235039E1,4.499966E0,2.4231024E0,1.7115484E0,9.736548E1,1.2441392E0,1.3405968E0,3.1593695E0,9.521602E1,2.1494617E0,3.3919923E0,9.182403E1,2.1455882E0,1.2464043E0,9.0284E1,1.5400256E0],"tree_param":{"num_deleted":"0","num_feature":"28","num_nodes":"23","size_leaf_vector":"1"}},{"base_weights":[9.250168E-3,-1.0720323E0,1.0914067E0,-1.1612672E0,6.11076E-1,-4.081774E-2,1.1117048E0,-1.1969811E0,-3.7982455E-1,2.9425156E-1,1.3309968E-2,1.1254041E0,3.672886E-2,-9.057895E-2,-3.6251536E-1,2.2903995E-1,-2.8761184E-1,1.1393576E0,1.2077864E-1,5.36193E-1,1.1572549E0,-4.3099318E-2,2.779553E-1,3.5034102E-1,1.09375775E-1],"categories":[],"categories_nodes":[],"categories_segments":[],"categories_sizes":[],"default_left":[0,0,0,0,0,0,0,0,0,0,0,0,0,0,0,0,0,0,0,0,0,0,0,0,0],"id":3,"left_children":[1,3,5,7,9,-1,11,13,15,-1,-1,17,-1,-1,-1,-1,-1,19,-1,21,23,-1,-1,-1,-1],"loss_changes":[1.9450542E2,1.31983185E1,2.2211227E0,1.7587585E0,9.7106683E-1,0E0,9.712372E-1,4.0451813E-1,3.995459E0,0E0,0E0,3.5414124E-1,0E0,0E0,0E0,0E0,0E0,2.271347E-1,0E0,1.2280358E0,2.0464325E-1,0E0,0E0,0E0,0E0],"parents":[2147483647,0,0,1,1,2,2,3,3,4,4,6,6,7,7,8,8,11,11,17,17,19,19,20,20],"right_children":[2,4,6,8,10,-1,12,14,16,-1,-1,18,-1,-1,-1,-1,-1,20,-1,22,24,-1,-1,-1,-1],"split_conditions":[3.1257481E-3,1.5158801E-2,2.8501089E0,2.823267E-4,1.8495831E0,-4.081774E-2,5.2621727E0,2.6143818E0,8.738901E-1,2.9425156E-1,1.3309968E-2,3E0,3.672886E-2,-9.057895E-2,-3.6251536E-1,2.2903995E-1,-2.8761184E-1,2.723924E0,1.2077864E-1,7.118865E-2,1.87198E1,-4.3099318E-2,2.779553E-1,3.5034102E-1,1.09375775E-1],"split_indices":[24,21,26,25,0,0,1,27,25,0,0,8,0,0,0,0,0,27,0,2,6,0,0,0,0],"split_type":[0,0,0,0,0,0,0,0,0,0,0,0,0,0,0,0,0,0,0,0,0,0,0,0,0],"sum_hessian":[1.6422742E2,8.2151566E1,8.207586E1,7.830979E1,3.8417718E0,1.2424027E0,8.083345E1,7.437874E1,3.9310534E0,1.8826399E0,1.959132E0,7.959365E1,1.2398045E0,1.2813723E0,7.309737E1,1.2141811E0,2.7168722E0,7.752087E1,2.072784E0,3.1261203E0,7.4394745E1,1.3706657E0,1.7554547E0,7.295069E1,1.4440497E0],"tree_param":{"num_deleted":"0","num_feature":"28","num_nodes":"25","size_leaf_vector":"1"}},{"base_weights":[1.1296749E-2,-9.831782E-1,9.9231166E-1,-1.0779133E0,5.2141666E-1,2.8670332E-1,1.044515E0,-1.1154867E0,-3.2221967E-1,2.6184127E-1,-1.9658532E-2,-3.073312E-1,2.3463756E-1,1.0618411E0,3.070241E-2,-7.7736735E-2,-3.38686E-1,2.0503871E-1,-2.580637E-1,1.0736375E0,9.3765095E-2,1.0826412E0,9.4115466E-2,3.2885206E-1,1.2784724E-1],"categories":[],"categories_nodes":[],"categories_segments":[],"categories_sizes":[],"default_left":[0,0,0,0,0,0,0,0,0,0,0,0,0,0,0,0,0,0,0,0,0,0,0,0,0],"id":4,"left_children":[1,3,5,7,9,11,13,15,17,-1,-1,-1,-1,19,-1,-1,-1,-1,-1,21,-1,23,-1,-1,-1],"loss_changes":[1.308878E2,1.0059296E1,2.1881027E0,1.4296494E0,1.0101985E0,4.7184124E0,9.116287E-1,3.9499664E-1,2.963478E0,0E0,0E0,0E0,0E0,2.0596313E-1,0E0,0E0,0E0,0E0,0E0,7.0243835E-2,0E0,5.519104E-2,0E0,0E0,0E0],"parents":[2147483647,0,0,1,1,2,2,3,3,4,4,5,5,6,6,7,7,8,8,13,13,19,19,21,21],"right_children":[2,4,6,8,10,12,14,16,18,-1,-1,-1,-1,20,-1,-1,-1,-1,-1,22,-1,24,-1,-1,-1],"split_conditions":[3.1257481E-3,1.5158801E-2,1.0552343E0,2.823267E-4,9.610703E-1,2.823267E-4,5.2621727E0,2.6143818E0,8.738901E-1,2.6184127E-1,-1.9658532E-2,-3.073312E-1,2.3463756E-1,1.87198E1,3.070241E-2,-7.7736735E-2,-3.38686E-1,2.0503871E-1,-2.580637E-1,3.482621E0,9.3765095E-2,3.8286414E0,9.4115466E-2,3.2885206E-1,1.2784724E-1],"split_indices":[24,21,0,25,21,25,1,27,25,0,0,0,0,6,0,0,0,0,0,8,0,26,0,0,0],"split_type":[0,0,0,0,0,0,0,0,0,0,0,0,0,0,0,0,0,0,0,0,0,0,0,0,0],"sum_hessian":[1.3216203E2,6.562968E1,6.653236E1,6.200894E1,3.6207376E0,5.030432E0,6.1501923E1,5.8618298E1,3.3906434E0,1.960195E0,1.6605425E0,1.0866885E0,3.9437437E0,6.0266636E1,1.235286E0,1.2208903E0,5.7397408E1,1.0874517E0,2.3031917E0,5.8906387E1,1.3602477E0,5.779691E1,1.109478E0,5.5973347E1,1.8235629E0],"tree_param":{"num_deleted":"0","num_feature":"28","num_nodes":"25","size_leaf_vector":"1"}},{"base_weights":[1.1737074E-2,-9.1346854E-1,9.0149915E-1,-1.0149828E0,4.5081908E-1,2.2093177E-1,9.5808303E-1,-1.0552495E0,-2.7556756E-1,2.527202E-1,-3.219584E-2,-2.4824993E-1,6.9105256E-1,9.781513E-1,2.567161E-2,-6.676317E-2,-3.2152656E-1,-1.4907059E-1,5.185501E-2,6.197722E-2,2.362223E-1,4.48037E-1,1.0040656E0,2.6965606E-1,-9.9408135E-2,1.0192188E0,8.044268E-2,3.094274E-1,8.0908686E-2],"categories":[],"categories_nodes":[],"categories_segments":[],"categories_sizes":[],"default_left":[0,0,0,0,0,0,0,0,0,0,0,0,0,0,0,0,0,0,0,0,0,0,0,0,0,0,0,0,0],"id":5,"left_children":[1,3,5,7,9,11,13,15,17,-1,-1,-1,19,21,-1,-1,-1,-1,-1,-1,-1,23,25,-1,-1,27,-1,-1,-1],"loss_changes":[8.883634E1,7.785282E0,1.9064941E0,1.1845856E0,1.042594E0,3.2935028E0,8.0023193E-1,4.025383E-1,4.7421616E-1,0E0,0E0,0E0,4.072857E-2,2.2673416E-1,0E0,0E0,0E0,0E0,0E0,0E0,0E0,1.7388624E0,2.4135208E-1,0E0,0E0,1.3225555E-1,0E0,0E0,0E0],"parents":[2147483647,0,0,1,1,2,2,3,3,4,4,5,5,6,6,7,7,8,8,12,12,13,13,21,21,22,22,25,25],"right_children":[2,4,6,8,10,12,14,16,18,-1,-1,-1,20,22,-1,-1,-1,-1,-1,-1,-1,24,26,-1,-1,28,-1,-1,-1],"split_conditions":[3.1257481E-3,1.5158801E-2,1.0552343E0,2.823267E-4,1.8698964E0,2.823267E-4,5.2621727E0,2.6143818E0,2.8923478E0,2.527202E-1,-3.219584E-2,-2.4824993E-1,5.8E-1,2.723924E0,2.567161E-2,-6.676317E-2,-3.2152656E-1,-1.4907059E-1,5.185501E-2,6.197722E-2,2.362223E-1,2.583656E0,1.87198E1,2.6965606E-1,-9.9408135E-2,3.482621E0,8.044268E-2,3.094274E-1,8.0908686E-2],"split_indices":[24,21,0,25,1,25,1,27,27,0,0,0,6,27,0,0,0,0,0,0,0,0,6,0,0,8,0,0,0],"split_type":[0,0,0,0,0,0,0,0,0,0,0,0,0,0,0,0,0,0,0,0,0,0,0,0,0,0,0,0,0],"sum_hessian":[1.0591384E2,5.1909695E1,5.400415E1,4.8552986E1,3.3567078E0,4.52184E0,4.948231E1,4.5640385E1,2.912602E0,1.6733835E0,1.6833243E0,1.1645514E0,3.3572888E0,4.825142E1,1.2308917E0,1.1685889E0,4.4471794E1,1.8776765E0,1.0349255E0,1.0785457E0,2.2787433E0,3.101197E0,4.5150223E1,1.8676499E0,1.2335471E0,4.3862125E1,1.2880986E0,4.2789196E1,1.072926E0],"tree_param":{"num_deleted":"0","num_feature":"28","num_nodes":"29","size_leaf_vector":"1"}},{"base_weights":[1.4403847E-2,-8.4672E-1,8.25792E-1,-9.5653105E-1,3.9059797E-1,1.032992E0,5.6300294E-1,-1.0059824E0,-2.279703E-1,2.3319443E-1,-2.6723819E-2,3.333214E-1,4.987869E-1,-6.5895915E-1,7.2826004E-1,-5.7366606E-2,-3.0796665E-1,-1.2652628E-1,4.4091165E-2,-2.6604766E-3,2.2604524E-1,-2.5080967E-1,-5.1823776E-2,8.0556613E-1,-9.72831E-2,8.9656174E-1,4.0685788E-1,4.8628174E-2,2.839822E-1,2.4031487E-1,-7.072523E-2],"categories":[],"categories_nodes":[],"categories_segments":[],"categories_sizes":[],"default_left":[0,0,0,0,0,0,0,0,0,0,0,0,0,0,0,0,0,0,0,0,0,0,0,0,0,0,0,0,0,0,0],"id":6,"left_children":[1,3,5,7,9,11,13,15,17,-1,-1,-1,19,21,23,-1,-1,-1,-1,-1,-1,-1,-1,25,-1,27,29,-1,-1,-1,-1],"loss_changes":[6.0856827E1,6.1159286E0,1.8597221E0,1.179657E0,8.4001225E-1,4.414997E-1,4.915307E0,4.1265106E-1,3.365405E-1,0E0,0E0,0E0,6.3491106E-1,1.2605095E-1,1.8741512E0,0E0,0E0,0E0,0E0,0E0,0E0,0E0,0E0,3.1561375E-1,0E0,3.7725163E-1,1.5353318E0,0E0,0E0,0E0,0E0],"parents":[2147483647,0,0,1,1,2,2,3,3,4,4,5,5,6,6,7,7,8,8,12,12,13,13,14,14,23,23,25,25,26,26],"right_children":[2,4,6,8,10,12,14,16,18,-1,-1,-1,20,22,24,-1,-1,-1,-1,-1,-1,-1,-1,26,-1,28,30,-1,-1,-1,-1],"split_conditions":[3.1257481E-3,1.5158801E-2,1E0,2.823267E-4,1.8495831E0,1E0,2.7750883E0,2.6143818E0,2.8923478E0,2.3319443E-1,-2.6723819E-2,3.333214E-1,3.0105047E0,2.0152206E0,8.721239E-1,-5.7366606E-2,-3.0796665E-1,-1.2652628E-1,4.4091165E-2,-2.6604766E-3,2.2604524E-1,-2.5080967E-1,-5.1823776E-2,2.944439E0,-9.72831E-2,1.0552343E0,9.526446E-1,4.8628174E-2,2.839822E-1,2.4031487E-1,-7.072523E-2],"split_indices":[24,21,5,25,0,25,27,27,27,0,0,0,0,0,2,0,0,0,0,0,0,0,0,27,0,0,6,0,0,0,0],"split_type":[0,0,0,0,0,0,0,0,0,0,0,0,0,0,0,0,0,0,0,0,0,0,0,0,0,0,0,0,0,0,0],"sum_hessian":[8.509865E1,4.1262905E1,4.3835743E1,3.81078E1,3.1551073E0,2.2871492E1,2.096425E1,3.532904E1,2.7787564E0,1.4032832E0,1.7518241E0,1.9012735E1,3.8587568E0,2.1415424E0,1.8822708E1,1.1236477E0,3.4205395E1,1.7496263E0,1.02913E0,1.6116476E0,2.2471092E0,1.0424266E0,1.0991158E0,1.775341E1,1.0692985E0,1.3437873E1,4.315537E0,1.1276357E0,1.2310237E1,2.5219517E0,1.7935851E0],"tree_param":{"num_deleted":"0","num_feature":"28","num_nodes":"31","size_leaf_vector":"1"}},{"base_weights":[1.7890971E-2,-7.813693E-1,7.466417E-1,-9.0094376E-1,3.4098318E-1,9.7031367E-1,4.8259485E-1,-9.615474E-1,-1.8839553E-1,2.1567492E-1,-4.5888893E-2,3.178226E-1,4.3992907E-1,-5.5052143E-1,6.483903E-1,-4.9310032E-2,-9.872842E-1,-1.0704431E-1,3.7484415E-2,-2.7247192E-2,2.1684833E-1,-2.1115734E-1,-4.304218E-2,7.331356E-1,-9.583273E-2,-3.0629894E-1,-1.0932851E-1,8.432858E-1,3.2732362E-1,5.728491E-2,2.9247436E-1,1.8644366E-1,-1.2664992E-1],"categories":[],"categories_nodes":[],"categories_segments":[],"categories_sizes":[],"default_left":[0,0,0,0,0,0,0,0,0,0,0,0,0,0,0,0,0,0,0,0,0,0,0,0,0,0,0,0,0,0,0,0,0],"id":7,"left_children":[1,3,5,7,9,11,13,15,17,-1,-1,-1,19,21,23,-1,25,-1,-1,-1,-1,-1,-1,27,-1,-1,-1,29,31,-1,-1,-1,-1],"loss_changes":[4.148651E1,4.867573E0,1.7313519E0,1.1568108E0,8.5614944E-1,4.3999672E-1,3.6233516E0,4.185772E-1,2.3838249E-1,0E0,0E0,0E0,7.3648924E-1,9.736729E-2,1.619657E0,0E0,1.9961166E-1,0E0,0E0,0E0,0E0,0E0,0E0,4.31818E-1,0E0,0E0,0E0,8.288107E-1,1.3680094E0,0E0,0E0,0E0,0E0],"parents":[2147483647,0,0,1,1,2,2,3,3,4,4,5,5,6,6,7,7,8,8,12,12,13,13,14,14,16,16,23,23,27,27,28,28],"right_children":[2,4,6,8,10,12,14,16,18,-1,-1,-1,20,22,24,-1,26,-1,-1,-1,-1,-1,-1,28,-1,-1,-1,30,32,-1,-1,-1,-1],"split_conditions":[3.1257481E-3,1.5158801E-2,1E0,2.823267E-4,9.610703E-1,1E0,2.7750883E0,2.6143818E0,2.8923478E0,2.1567492E-1,-4.5888893E-2,3.178226E-1,3.1257481E-3,2.0152206E0,7E0,-4.9310032E-2,4.0626135E0,-1.0704431E-1,3.7484415E-2,-2.7247192E-2,2.1684833E-1,-2.1115734E-1,-4.304218E-2,9.743948E-1,-9.583273E-2,-3.0629894E-1,-1.0932851E-1,2.823267E-4,5E0,5.728491E-2,2.9247436E-1,1.8644366E-1,-1.2664992E-1],"split_indices":[24,21,5,25,21,25,27,27,27,0,0,0,23,0,3,0,0,0,0,0,0,0,0,23,0,0,0,25,6,0,0,0,0],"split_type":[0,0,0,0,0,0,0,0,0,0,0,0,0,0,0,0,0,0,0,0,0,0,0,0,0,0,0,0,0,0,0,0,0],"sum_hessian":[6.922456E1,3.2980675E1,3.6243893E1,2.9983528E1,2.9971461E0,1.8174032E1,1.806986E1,2.7311207E1,2.6723206E0,1.4399453E0,1.5572009E0,1.4706218E1,3.467814E0,2.1779535E0,1.5891907E1,1.0851712E0,2.6226036E1,1.647874E0,1.0244467E0,1.4417895E0,2.0260246E0,1.0523505E0,1.125603E0,1.4835389E1,1.0565178E0,2.4273033E1,1.9530027E0,1.0820375E1,4.015014E0,2.2282255E0,8.59215E0,3.0060253E0,1.0089886E0],"tree_param":{"num_deleted":"0","num_feature":"28","num_nodes":"33","size_leaf_vector":"1"}},{"base_weights":[1.8771607E-2,-7.181937E-1,6.6852784E-1,-8.4568256E-1,3.0013755E-1,9.107332E-1,4.0599766E-1,-9.188933E-1,-1.5557852E-1,2.0907114E-1,-4.901522E-2,3.038914E-1,3.8672802E-1,-4.6213248E-1,5.678301E-1,-5.7053965E-2,-9.559689E-1,-9.031431E-2,3.186422E-2,-2.375085E-2,2.0066102E-1,-1.7876823E-1,-3.5764024E-2,6.5944487E-1,-9.961449E-2,-2.9861602E-1,-1.17889546E-1,7.777057E-1,2.2761433E-1,2.5367862E-1,3.510429E-2,2.004249E-1,-8.712094E-2],"categories":[],"categories_nodes":[],"categories_segments":[],"categories_sizes":[],"default_left":[0,0,0,0,0,0,0,0,0,0,0,0,0,0,0,0,0,0,0,0,0,0,0,0,0,0,0,0,0,0,0,0,0],"id":8,"left_children":[1,3,5,7,9,11,13,15,17,-1,-1,-1,19,21,23,-1,25,-1,-1,-1,-1,-1,-1,27,-1,-1,-1,29,31,-1,-1,-1,-1],"loss_changes":[2.8266174E1,3.846222E0,1.6240511E0,1.1127415E0,8.1581736E-1,4.3890572E-1,2.6298413E0,4.1977882E-1,1.6860157E-1,0E0,0E0,0E0,5.9831214E-1,7.569873E-2,1.4269114E0,0E0,7.355881E-2,0E0,0E0,0E0,0E0,0E0,0E0,5.1920414E-1,0E0,0E0,0E0,3.6252975E-1,1.1853371E0,0E0,0E0,0E0,0E0],"parents":[2147483647,0,0,1,1,2,2,3,3,4,4,5,5,6,6,7,7,8,8,12,12,13,13,14,14,16,16,23,23,27,27,28,28],"right_children":[2,4,6,8,10,12,14,16,18,-1,-1,-1,20,22,24,-1,26,-1,-1,-1,-1,-1,-1,28,-1,-1,-1,30,32,-1,-1,-1,-1],"split_conditions":[3.1257481E-3,1.5158801E-2,1E0,2.823267E-4,1.8698964E0,1E0,2.7750883E0,2.8501089E0,2.8923478E0,2.0907114E-1,-4.901522E-2,3.038914E-1,3.0105047E0,2.0152206E0,9.148459E-1,-5.7053965E-2,4.0626135E0,-9.031431E-2,3.186422E-2,-2.375085E-2,2.0066102E-1,-1.7876823E-1,-3.5764024E-2,2.944439E0,-9.961449E-2,-2.9861602E-1,-1.17889546E-1,1.7900944E1,9.526446E-1,2.5367862E-1,3.510429E-2,2.004249E-1,-8.712094E-2],"split_indices":[24,21,5,25,1,25,27,26,27,0,0,0,0,0,2,0,0,0,0,0,0,0,0,27,0,0,0,6,6,0,0,0,0],"split_type":[0,0,0,0,0,0,0,0,0,0,0,0,0,0,0,0,0,0,0,0,0,0,0,0,0,0,0,0,0,0,0,0,0],"sum_hessian":[5.7026875E1,2.6670914E1,3.035596E1,2.3854069E1,2.8168435E0,1.4504929E1,1.5851033E1,2.1266459E1,2.587611E0,1.2464268E0,1.5704167E0,1.1356117E1,3.148811E0,2.199023E0,1.365201E1,1.3263758E0,1.9940083E1,1.5669585E0,1.0206525E0,1.458993E0,1.6898181E0,1.0512528E0,1.1477702E0,1.263305E1,1.0189602E0,1.7917616E1,2.0224662E0,9.288386E0,3.3446634E0,8.169103E0,1.1192844E0,1.6510708E0,1.6935924E0],"tree_param":{"num_deleted":"0","num_feature":"28","num_nodes":"33","size_leaf_vector":"1"}},{"base_weights":[2.0093964E-2,-6.522376E-1,5.953687E-1,-7.870117E-1,2.659532E-1,2.0897706E-1,7.87195E-1,-8.10668E-3,-8.628649E-1,1.9638805E-1,-4.2863663E-2,4.9893397E-1,-4.872816E-1,-7.0805736E-2,8.956352E-1,-9.2096055E-1,-7.808745E-2,1.0639644E-2,2.4723572E-1,6.88493E-2,-2.9085732E-1,3.0005294E-1,-7.34756E-2,-2.9180396E-1,-8.231963E-2,-3.3232576E-1,1.6033395E-1,2.5959471E-2,-1.757203E-1],"categories":[],"categories_nodes":[],"categories_segments":[],"categories_sizes":[],"default_left":[0,0,0,0,0,0,0,0,0,0,0,0,0,0,0,0,0,0,0,0,0,0,0,0,0,0,0,0,0],"id":9,"left_children":[1,3,5,7,9,11,13,-1,15,-1,-1,17,19,-1,21,23,-1,25,-1,-1,-1,-1,-1,-1,-1,27,-1,-1,-1],"loss_changes":[1.9213522E1,3.0456305E0,1.8183613E0,1.1434155E0,6.784638E-1,2.3097258E0,2.154869E0,0E0,4.033575E-1,0E0,0E0,1.217217E0,1.4376941E0,0E0,2.1581688E0,2.8019333E-1,0E0,9.140781E-1,0E0,0E0,0E0,0E0,0E0,0E0,0E0,3.7908867E-1,0E0,0E0,0E0],"parents":[2147483647,0,0,1,1,2,2,3,3,4,4,5,5,6,6,8,8,11,11,12,12,14,14,15,15,17,17,25,25],"right_children":[2,4,6,8,10,12,14,-1,16,-1,-1,18,20,-1,22,24,-1,26,-1,-1,-1,-1,-1,-1,-1,28,-1,-1,-1],"split_conditions":[3.1257481E-3,1.5158801E-2,2.0152206E0,2.6516075E0,1.8495831E0,3.5666046E0,2.723924E0,-8.10668E-3,7.0352037E-3,1.9638805E-1,-4.2863663E-2,2.8923478E0,2.8818016E0,-7.0805736E-2,2.9840539E0,4.0626135E0,-7.808745E-2,3.2983997E0,2.4723572E-1,6.88493E-2,-2.9085732E-1,3.0005294E-1,-7.34756E-2,-2.9180396E-1,-8.231963E-2,4.3516767E-1,1.6033395E-1,2.5959471E-2,-1.757203E-1],"split_indices":[24,21,0,27,0,26,27,0,9,0,0,27,27,0,27,0,0,26,0,0,0,0,0,0,0,6,0,0,0],"split_type":[0,0,0,0,0,0,0,0,0,0,0,0,0,0,0,0,0,0,0,0,0,0,0,0,0,0,0,0,0],"sum_hessian":[4.767218E1,2.1920086E1,2.5752092E1,1.9239008E1,2.6810777E0,9.236542E0,1.6515553E1,1.8690317E0,1.7369976E1,1.0662192E0,1.6148585E0,6.7209916E0,2.51555E0,1.4698567E0,1.5045695E1,1.5360639E1,2.0093372E0,3.0995138E0,3.6214776E0,1.2225387E0,1.2930113E0,1.3895166E1,1.1505284E0,1.3755899E1,1.6047395E0,2.0940075E0,1.0055063E0,1.0375605E0,1.056447E0],"tree_param":{"num_deleted":"0","num_feature":"28","num_nodes":"29","size_leaf_vector":"1"}},{"base_weights":[1.7789342E-2,-5.816102E-1,5.2144E-1,-8.5479766E-2,-9.233962E-1,8.097806E-1,2.4511379E-1,-4.272034E-1,2.4335577E-1,-5.23275E-2,-3.0014023E-1,2.83904E-1,2.2786717E-1,-1.9482337E-1,6.0156804E-1,1.1789716E-1,-6.3786393E-1,-7.462356E-2,1.7427573E-1,-2.4591406E-1,2.035068E-1,7.827057E-1,-3.866723E-2,-2.4557981E-1,1.6253162E-2,1.4716022E-1,-5.7184704E-2,6.296915E-2,2.5589526E-1],"categories":[],"categories_nodes":[],"categories_segments":[],"categories_sizes":[],"default_left":[0,0,0,0,0,0,0,0,0,0,0,0,0,0,0,0,0,0,0,0,0,0,0,0,0,0,0,0,0],"id":10,"left_children":[1,3,5,7,9,11,13,15,-1,-1,-1,-1,17,19,21,-1,23,-1,-1,-1,25,27,-1,-1,-1,-1,-1,-1,-1],"loss_changes":[1.2793338E1,3.2045693E0,1.63482E0,3.104382E0,4.8142433E-1,6.4468765E-1,2.1846242E0,1.4898486E0,0E0,0E0,0E0,0E0,7.1239126E-1,1.8236262E0,1.0968673E0,0E0,8.0575037E-1,0E0,0E0,0E0,6.4397645E-1,6.9466114E-2,0E0,0E0,0E0,0E0,0E0,0E0,0E0],"parents":[2147483647,0,0,1,1,2,2,3,3,4,4,5,5,6,6,7,7,12,12,13,13,14,14,16,16,20,20,21,21],"right_children":[2,4,6,8,10,12,14,16,-1,-1,-1,-1,18,20,22,-1,24,-1,-1,-1,26,28,-1,-1,-1,-1,-1,-1,-1],"split_conditions":[3.1257481E-3,3.0965676E0,1E0,1.5158801E-2,2.723924E0,1E0,2.823267E-4,2.6516075E0,2.4335577E-1,-5.23275E-2,-3.0014023E-1,2.83904E-1,3.1257481E-3,2.0183907E0,9.743948E-1,1.1789716E-1,2.823267E-4,-7.462356E-2,1.7427573E-1,-2.4591406E-1,3.5263605E0,2.8410294E0,-3.866723E-2,-2.4557981E-1,1.6253162E-2,1.4716022E-1,-5.7184704E-2,6.296915E-2,2.5589526E-1],"split_indices":[24,26,5,21,27,25,25,27,0,0,0,0,23,1,23,0,25,0,0,0,26,27,0,0,0,0,0,0,0],"split_type":[0,0,0,0,0,0,0,0,0,0,0,0,0,0,0,0,0,0,0,0,0,0,0,0,0,0,0,0,0],"sum_hessian":[4.0373165E1,1.8363636E1,2.200953E1,8.000439E0,1.0363196E1,9.825893E0,1.2183637E1,6.1718726E0,1.8285662E0,1.271364E0,9.091832E0,7.450995E0,2.3748982E0,5.6561885E0,6.5274487E0,1.0843819E0,5.0874906E0,1.136326E0,1.2385722E0,1.790081E0,3.8661072E0,5.173106E0,1.3543426E0,3.8889616E0,1.198529E0,2.0954397E0,1.7706676E0,1.0010049E0,4.172101E0],"tree_param":{"num_deleted":"0","num_feature":"28","num_nodes":"29","size_leaf_vector":"1"}},{"base_weights":[2.3073662E-2,-5.2465457E-1,4.5798844E-1,-6.0154237E-2,-8.6863846E-1,2.4572477E-1,2.6743627E-1,-3.6862734E-1,2.2033598E-1,-4.4798538E-2,-2.8775954E-1,8.136131E-3,2.4446765E-1,-6.224374E-1,7.3467165E-2,1.7911717E-1,-2.2969228E-1,-5.8837302E-2,-2.2222841E-1,-1.349641E-1,5.991898E-1,-1.9387165E-1,8.4602766E-2,2.2490387E-1,9.384468E-3],"categories":[],"categories_nodes":[],"categories_segments":[],"categories_sizes":[],"default_left":[0,0,0,0,0,0,0,0,0,0,0,0,0,0,0,0,0,0,0,0,0,0,0,0,0],"id":11,"left_children":[1,3,5,7,9,11,-1,13,-1,-1,-1,15,-1,17,-1,19,-1,-1,-1,21,23,-1,-1,-1,-1],"loss_changes":[8.711274E0,2.536982E0,1.653821E0,2.2240808E0,4.58395E-1,2.0278258E0,0E0,1.15001E0,0E0,0E0,0E0,1.6750244E0,0E0,9.755123E-2,0E0,1.4438846E0,0E0,0E0,0E0,1.6164263E0,3.6998403E-1,0E0,0E0,0E0,0E0],"parents":[2147483647,0,0,1,1,2,2,3,3,4,4,5,5,7,7,11,11,13,13,15,15,19,19,20,20],"right_children":[2,4,6,8,10,12,-1,14,-1,-1,-1,16,-1,18,-1,20,-1,-1,-1,22,24,-1,-1,-1,-1],"split_conditions":[3.1257481E-3,3.0965676E0,3.0105047E0,1.5158801E-2,2.723924E0,3.1257481E-3,2.6743627E-1,2.823267E-4,2.2033598E-1,-4.4798538E-2,-2.8775954E-1,3.9859295E0,2.4446765E-1,1.0552343E0,7.3467165E-2,2.8923478E0,-2.2969228E-1,-5.8837302E-2,-2.2222841E-1,3.1257481E-3,8.6311436E-1,-1.9387165E-1,8.4602766E-2,2.2490387E-1,9.384468E-3],"split_indices":[24,26,0,21,27,20,0,25,0,0,0,1,0,0,0,27,0,0,0,23,25,0,0,0,0],"split_type":[0,0,0,0,0,0,0,0,0,0,0,0,0,0,0,0,0,0,0,0,0,0,0,0,0],"sum_hessian":[3.456025E1,1.5204936E1,1.9355314E1,6.96908E0,8.235856E0,1.4044669E1,5.3106446E0,5.406371E0,1.5627087E0,1.2171423E0,7.0187135E0,1.0624118E1,3.4205515E0,3.8139968E0,1.5923744E0,9.330811E0,1.2933077E0,1.4059554E0,2.4080412E0,5.727309E0,3.6035006E0,2.3257465E0,3.401563E0,2.595618E0,1.0078828E0],"tree_param":{"num_deleted":"0","num_feature":"28","num_nodes":"25","size_leaf_vector":"1"}},{"base_weights":[2.3736827E-2,-4.7169232E-1,4.024263E-1,-4.8598085E-2,-8.1034875E-1,7.1899134E-1,1.3611846E-1,-3.2532215E-1,2.0042853E-1,-3.833394E-2,-2.743395E-1,2.6604703E-1,3.5931308E-2,-2.083768E-1,4.7831118E-1,1.1503964E-1,-5.535304E-1,-6.0038286E-1,1.6584653E-1,2.059437E-1,-4.8203245E-2,-2.2637661E-1,1.051874E-2,-2.7101636E-1,-1.8164285E-2,2.0129251E-1,-1.3935491E-1],"categories":[],"categories_nodes":[],"categories_segments":[],"categories_sizes":[],"default_left":[0,0,0,0,0,0,0,0,0,0,0,0,0,0,0,0,0,0,0,0,0,0,0,0,0,0,0],"id":12,"left_children":[1,3,5,7,9,11,13,15,-1,-1,-1,-1,-1,17,19,-1,21,23,25,-1,-1,-1,-1,-1,-1,-1,-1],"loss_changes":[5.9892335E0,1.9453778E0,1.424613E0,1.6496693E0,4.2538166E-1,7.0010424E-1,1.4013224E0,1.1638129E0,0E0,0E0,0E0,0E0,0E0,1.0089445E0,8.875036E-1,0E0,6.015129E-1,4.7593045E-1,1.5709963E0,0E0,0E0,0E0,0E0,0E0,0E0,0E0,0E0],"parents":[2147483647,0,0,1,1,2,2,3,3,4,4,5,5,6,6,7,7,13,13,14,14,16,16,17,17,18,18],"right_children":[2,4,6,8,10,12,14,16,-1,-1,-1,-1,-1,18,20,-1,22,24,26,-1,-1,-1,-1,-1,-1,-1,-1],"split_conditions":[3.1257481E-3,3.0965676E0,1E0,1.5158801E-2,2.723924E0,1E0,2.823267E-4,2.6516075E0,2.0042853E-1,-3.833394E-2,-2.743395E-1,2.6604703E-1,3.5931308E-2,3.2168355E0,9.743948E-1,1.1503964E-1,2.835893E0,2.0183907E0,2.8835897E0,2.059437E-1,-4.8203245E-2,-2.2637661E-1,1.051874E-2,-2.7101636E-1,-1.8164285E-2,2.0129251E-1,-1.3935491E-1],"split_indices":[24,26,5,21,27,25,25,27,0,0,0,0,0,6,23,0,27,1,27,0,0,0,0,0,0,0,0],"split_type":[0,0,0,0,0,0,0,0,0,0,0,0,0,0,0,0,0,0,0,0,0,0,0,0,0,0,0],"sum_hessian":[2.9911436E1,1.2851966E1,1.705947E1,6.2220564E0,6.62991E0,7.017631E0,1.0041839E1,4.8828187E0,1.3392377E0,1.1722317E0,5.4576783E0,5.1072187E0,1.9104122E0,5.198955E0,4.842883E0,1.023529E0,3.8592896E0,2.2439895E0,2.9549656E0,3.5968058E0,1.2460775E0,2.6664367E0,1.192853E0,1.0059226E0,1.2380669E0,1.6046696E0,1.3502959E0],"tree_param":{"num_deleted":"0","num_feature":"28","num_nodes":"27","size_leaf_vector":"1"}},{"base_weights":[2.0909065E-2,-4.171681E-1,3.4264392E-1,-2.875586E-2,-7.4979717E-1,1.4485464E-1,2.4437399E-1,-1.5575498E-1,3.488084E-1,-3.27909E-2,-2.6003504E-1,-6.2016428E-2,2.1937579E-1,1.9394031E-1,-1.9164644E-2,1.53898E-1,-1.9556399E-1,2.2180165E-1,-1.9886342E-1,-2.0242514E-1,4.0232014E-2],"categories":[],"categories_nodes":[],"categories_segments":[],"categories_sizes":[],"default_left":[0,0,0,0,0,0,0,0,0,0,0,0,0,0,0,0,0,0,0,0,0],"id":13,"left_children":[1,3,5,7,9,11,-1,-1,13,-1,-1,15,-1,-1,-1,17,-1,-1,19,-1,-1],"loss_changes":[3.9807673E0,1.5263433E0,1.3986908E0,1.3970745E0,3.8585544E-1,1.5818524E0,0E0,0E0,5.7056314E-1,0E0,0E0,1.410193E0,0E0,0E0,0E0,1.8689784E0,0E0,0E0,1.0397855E0,0E0,0E0],"parents":[2147483647,0,0,1,1,2,2,3,3,4,4,5,5,8,8,11,11,15,15,18,18],"right_children":[2,4,6,8,10,12,-1,-1,14,-1,-1,16,-1,-1,-1,18,-1,-1,20,-1,-1],"split_conditions":[3.1257481E-3,3.0965676E0,3.0105047E0,1.0265322E0,2.723924E0,3.1257481E-3,2.4437399E-1,-1.5575498E-1,1.9208419E0,-3.27909E-2,-2.6003504E-1,9.823786E-1,2.1937579E-1,1.9394031E-1,-1.9164644E-2,1E0,-1.9556399E-1,2.2180165E-1,3.1257481E-3,-2.0242514E-1,4.0232014E-2],"split_indices":[24,26,0,1,27,20,0,0,0,0,0,25,0,0,0,5,0,0,23,0,0],"split_type":[0,0,0,0,0,0,0,0,0,0,0,0,0,0,0,0,0,0,0,0,0],"sum_hessian":[2.6229315E1,1.0980941E1,1.5248373E1,5.5669003E0,5.4140406E0,1.1666048E1,3.5823252E0,2.2583668E0,3.3085337E0,1.1348909E0,4.27915E0,9.2847805E0,2.381268E0,1.593051E0,1.7154827E0,7.3379006E0,1.9468796E0,2.3469896E0,4.990911E0,1.6319864E0,3.3589246E0],"tree_param":{"num_deleted":"0","num_feature":"28","num_nodes":"21","size_leaf_vector":"1"}},{"base_weights":[2.1843173E-2,-2.5824156E-1,4.3275926E-1,-5.0590307E-1,2.952807E-1,2.669729E-1,-1.4457878E-1,-1.0234371E-1,-7.8449565E-1,-8.355405E-2,5.060226E-1,-3.8444442E-1,1.10880695E-1,-2.9800814E-1,1.18676476E-1,-2.9079783E-1,-3.0043362E-2,2.0205088E-1,3.0684208E-2,-2.0342447E-1,5.461143E-4,1.1271396E-2,-1.5066278E-1],"categories":[],"categories_nodes":[],"categories_segments":[],"categories_sizes":[],"default_left":[0,0,0,0,0,0,0,0,0,0,0,0,0,0,0,0,0,0,0,0,0,0,0],"id":14,"left_children":[1,3,5,7,9,-1,11,13,15,-1,17,19,-1,21,-1,-1,-1,-1,-1,-1,-1,-1,-1],"loss_changes":[2.9464939E0,2.2431207E0,2.862236E0,1.147486E0,7.881923E-1,0E0,8.1268257E-1,6.644553E-1,7.0113444E-1,0E0,2.198354E-1,4.7734982E-1,0E0,3.3393213E-1,0E0,0E0,0E0,0E0,0E0,0E0,0E0,0E0,0E0],"parents":[2147483647,0,0,1,1,2,2,3,3,4,4,6,6,7,7,8,8,10,10,11,11,13,13],"right_children":[2,4,6,8,10,-1,12,14,16,-1,18,20,-1,22,-1,-1,-1,-1,-1,-1,-1,-1,-1],"split_conditions":[2.823267E-4,3.1257481E-3,1E0,3.152297E0,3.2983997E0,2.669729E-1,3.0105047E0,3.1257481E-3,3.0105047E0,-8.355405E-2,3E0,3.2983997E0,1.10880695E-1,1.6815027E0,1.18676476E-1,-2.9079783E-1,-3.0043362E-2,2.0205088E-1,3.0684208E-2,-2.0342447E-1,5.461143E-4,1.1271396E-2,-1.5066278E-1],"split_indices":[25,23,25,26,26,0,0,24,0,0,0,26,0,0,0,0,0,0,0,0,0,0,0],"split_type":[0,0,0,0,0,0,0,0,0,0,0,0,0,0,0,0,0,0,0,0,0,0,0],"sum_hessian":[2.3630327E1,1.4273147E1,9.357181E0,9.920475E0,4.3526716E0,4.920002E0,4.437179E0,4.60998E0,5.3104954E0,1.0828291E0,3.2698424E0,3.1977463E0,1.2394326E0,3.5977411E0,1.0122391E0,3.853359E0,1.4571362E0,1.8388836E0,1.4309587E0,1.3874944E0,1.810252E0,1.6697387E0,1.9280024E0],"tree_param":{"num_deleted":"0","num_feature":"28","num_nodes":"23","size_leaf_vector":"1"}},{"base_weights":[1.9801527E-2,-2.089696E-1,3.9983392E-1,-4.2775705E-1,2.2526626E-1,2.4488212E-1,-8.7561324E-2,-5.5083835E-1,5.7688702E-2,2.2313984E-1,-3.2971638E-1,1.2583481E-1,-4.961377E-1,1.171239E-3,-7.57641E-1,-1.6271737E-1,2.0397764E-3,-2.4157958E-1,3.8605172E-3,-7.916998E-2,7.005413E-2,-2.4873812E-1,-7.986083E-2],"categories":[],"categories_nodes":[],"categories_segments":[],"categories_sizes":[],"default_left":[0,0,0,0,0,0,0,0,0,0,0,0,0,0,0,0,0,0,0,0,0,0,0],"id":15,"left_children":[1,3,5,7,9,-1,11,13,-1,-1,15,-1,17,19,21,-1,-1,-1,-1,-1,-1,-1,-1],"loss_changes":[2.02918E0,1.4859326E0,1.8479927E0,8.745016E-1,1.8439564E0,0E0,1.2305796E0,9.8967576E-1,0E0,0E0,2.4532044E-1,0E0,5.125179E-1,2.6849952E-1,7.0023537E-4,0E0,0E0,0E0,0E0,0E0,0E0,0E0,0E0],"parents":[2147483647,0,0,1,1,2,2,3,3,4,4,6,6,7,7,10,10,12,12,13,13,14,14],"right_children":[2,4,6,8,10,-1,12,14,-1,-1,16,-1,18,20,22,-1,-1,-1,-1,-1,-1,-1,-1],"split_conditions":[3.1257481E-3,2.823267E-4,1E0,1.5158801E-2,9.929648E-1,2.4488212E-1,1E0,2.7398124E0,5.7688702E-2,2.2313984E-1,9.271264E-2,1.2583481E-1,3.3806472E0,3.8769758E-1,5.1613655E0,-1.6271737E-1,2.0397764E-3,-2.4157958E-1,3.8605172E-3,-7.916998E-2,7.005413E-2,-2.4873812E-1,-7.986083E-2],"split_indices":[23,25,23,21,25,0,6,27,0,0,6,0,26,6,6,0,0,0,0,0,0,0,0],"split_type":[0,0,0,0,0,0,0,0,0,0,0,0,0,0,0,0,0,0,0,0,0,0,0],"sum_hessian":[2.1378847E1,1.3626264E1,7.7525835E0,9.070872E0,4.5553913E0,3.8167295E0,3.9358537E0,7.661651E0,1.4092214E0,2.1791446E0,2.3762465E0,1.7444806E0,2.191373E0,2.359057E0,5.302594E0,1.0811703E0,1.2950761E0,1.0012584E0,1.1901147E0,1.0384753E0,1.3205817E0,4.0293317E0,1.2732624E0],"tree_param":{"num_deleted":"0","num_feature":"28","num_nodes":"23","size_leaf_vector":"1"}},{"base_weights":[1.48894675E-2,-3.13021E-1,2.3546088E-1,-1.6479872E-2,-5.986162E-1,7.427409E-2,2.1112518E-1,-3.3485833E-1,1.19001046E-1,-2.1517156E-1,-4.9473375E-2,-8.595264E-2,1.875199E-1,5.732276E-2,-1.8853115E-1,8.9236E-2,-2.1160735E-1,-2.0333043E-1,3.7503165E-1,7.474491E-2,-1.7809725E-1,-2.0202214E-2,2.0016882E-1],"categories":[],"categories_nodes":[],"categories_segments":[],"categories_sizes":[],"default_left":[0,0,0,0,0,0,0,0,0,0,0,0,0,0,0,0,0,0,0,0,0,0,0],"id":16,"left_children":[1,3,5,7,9,11,-1,13,-1,-1,-1,15,-1,-1,-1,17,-1,19,21,-1,-1,-1,-1],"loss_changes":[1.5590391E0,7.2591954E-1,9.1754544E-1,8.287411E-1,1.0794866E-1,9.9592566E-1,0E0,6.651597E-1,0E0,0E0,0E0,1.0557827E0,0E0,0E0,0E0,7.4683875E-1,0E0,9.623667E-1,6.1477405E-1,0E0,0E0,0E0,0E0],"parents":[2147483647,0,0,1,1,2,2,3,3,4,4,5,5,7,7,11,11,15,15,17,17,18,18],"right_children":[2,4,6,8,10,12,-1,14,-1,-1,-1,16,-1,-1,-1,18,-1,20,22,-1,-1,-1,-1],"split_conditions":[3.1257481E-3,3.0965676E0,3.0105047E0,2.835893E0,3.0105047E0,3.1257481E-3,2.1112518E-1,1.4626044E0,1.19001046E-1,-2.1517156E-1,-4.9473375E-2,3.9859295E0,1.875199E-1,5.732276E-2,-1.8853115E-1,3.2983997E0,-2.1160735E-1,9.743948E-1,2.8923478E0,7.474491E-2,-1.7809725E-1,-2.0202214E-2,2.0016882E-1],"split_indices":[24,26,0,27,0,20,0,0,0,0,0,1,0,0,0,26,0,6,27,0,0,0,0],"split_type":[0,0,0,0,0,0,0,0,0,0,0,0,0,0,0,0,0,0,0,0,0,0,0],"sum_hessian":[1.953619E1,7.687903E0,1.1848287E1,4.290581E0,3.3973217E0,9.676286E0,2.172001E0,2.5302436E0,1.7603374E0,2.1543417E0,1.24298E0,8.149519E0,1.5267669E0,1.0315013E0,1.4987423E0,7.019968E0,1.1295507E0,3.6114776E0,3.4084907E0,1.8400826E0,1.771395E0,1.6619383E0,1.7465523E0],"tree_param":{"num_deleted":"0","num_feature":"28","num_nodes":"23","size_leaf_vector":"1"}},{"base_weights":[1.3340502E-2,-1.7639859E-1,3.297454E-1,-3.0143753E-1,9.571334E-2,2.239867E-1,-6.168875E-2,-2.3509511E-1,-6.2118594E-2,1.07839845E-1,-3.58807E-1,-3.0814743E-1,3.9472374E-1,-2.0510115E-1,2.5541006E-2,1.7488031E-1,-2.2811444E-1,-1.5320927E-4,1.7195562E-1,-2.103195E-2,1.1760972E-1],"categories":[],"categories_nodes":[],"categories_segments":[],"categories_sizes":[],"default_left":[0,0,0,0,0,0,0,0,0,0,0,0,0,0,0,0,0,0,0,0,0],"id":17,"left_children":[1,3,5,7,-1,-1,9,-1,11,-1,13,15,17,-1,-1,19,-1,-1,-1,-1,-1],"loss_changes":[1.199676E0,8.72887E-1,1.2660602E0,1.1659813E0,0E0,0E0,7.270587E-1,0E0,1.0343387E0,0E0,5.345567E-1,1.4085834E0,2.317037E-1,0E0,0E0,2.209527E-1,0E0,0E0,0E0,0E0,0E0],"parents":[2147483647,0,0,1,1,2,2,3,3,6,6,8,8,10,10,11,11,12,12,15,15],"right_children":[2,4,6,8,-1,-1,10,-1,12,-1,14,16,18,-1,-1,20,-1,-1,-1,-1,-1],"split_conditions":[3.1257481E-3,1.4544666E-2,1E0,9.271264E-2,9.571334E-2,2.239867E-1,1E0,-2.3509511E-1,2.823267E-4,1.07839845E-1,3.3685224E0,2.8234308E0,2.8537405E0,-2.0510115E-1,2.5541006E-2,7.627732E-1,-2.2811444E-1,-1.5320927E-4,1.7195562E-1,-2.103195E-2,1.1760972E-1],"split_indices":[23,22,23,6,0,0,6,0,25,0,26,27,27,0,0,6,0,0,0,0,0],"split_type":[0,0,0,0,0,0,0,0,0,0,0,0,0,0,0,0,0,0,0,0,0],"sum_hessian":[1.8014263E1,1.1537839E1,6.476425E0,9.525413E0,2.0124254E0,2.6968648E0,3.7795603E0,2.4049952E0,7.1204176E0,1.4766366E0,2.3029237E0,4.839583E0,2.280835E0,1.0179948E0,1.2849288E0,2.6366713E0,2.2029116E0,1.0196905E0,1.2611444E0,1.5571167E0,1.0795544E0],"tree_param":{"num_deleted":"0","num_feature":"28","num_nodes":"21","size_leaf_vector":"1"}},{"base_weights":[1.4694042E-2,-2.54003E-1,1.8722372E-1,-4.5517508E-2,-1.9213767E-1,4.967272E-2,1.8904649E-1,-1.1563853E-1,1.6948818E-1,-7.998782E-2,1.643958E-1,1.7149977E-1,-1.6126476E-1,7.4784815E-2,-1.7494419E-1,2.8708842E-2,-9.9932484E-2,-1.4796914E-1,3.103308E-1,5.894209E-2,-1.827494E-1,-1.8894263E-2,1.7929882E-1],"categories":[],"categories_nodes":[],"categories_segments":[],"categories_sizes":[],"default_left":[0,0,0,0,0,0,0,0,0,0,0,0,0,0,0,0,0,0,0,0,0,0,0],"id":18,"left_children":[1,3,5,7,-1,9,-1,-1,11,13,-1,-1,15,17,-1,-1,-1,19,21,-1,-1,-1,-1],"loss_changes":[8.681993E-1,5.6274253E-1,6.6056573E-1,4.927934E-1,0E0,6.738339E-1,0E0,0E0,6.611427E-1,7.1411526E-1,0E0,0E0,1.6995436E-1,4.379081E-1,0E0,0E0,0E0,8.372101E-1,4.6176955E-1,0E0,0E0,0E0,0E0],"parents":[2147483647,0,0,1,1,2,2,3,3,5,5,8,8,9,9,12,12,13,13,17,17,18,18],"right_children":[2,4,6,8,-1,10,-1,-1,12,14,-1,-1,16,18,-1,-1,-1,20,22,-1,-1,-1,-1],"split_conditions":[3.1257481E-3,3.3685224E0,3.0105047E0,1.0265322E0,-1.9213767E-1,3.1257481E-3,1.8904649E-1,-1.1563853E-1,2.723924E0,3.9859295E0,1.643958E-1,1.7149977E-1,3.0907445E0,3.2983997E0,-1.7494419E-1,2.8708842E-2,-9.9932484E-2,2.878894E0,2.8923478E0,5.894209E-2,-1.827494E-1,-1.8894263E-2,1.7929882E-1],"split_indices":[24,26,0,1,0,20,0,0,27,1,0,0,26,26,0,0,0,27,27,0,0,0,0],"split_type":[0,0,0,0,0,0,0,0,0,0,0,0,0,0,0,0,0,0,0,0,0,0,0],"sum_hessian":[1.6702232E1,6.3463006E0,1.0355931E1,4.8484416E0,1.4978589E0,8.750603E0,1.6053288E0,1.5712885E0,3.277153E0,7.6099777E0,1.1406246E0,1.1501976E0,2.1269555E0,6.470891E0,1.1390866E0,1.0299588E0,1.0969967E0,3.5168438E0,2.9540472E0,2.3418381E0,1.1750056E0,1.6243901E0,1.3296572E0],"tree_param":{"num_deleted":"0","num_feature":"28","num_nodes":"23","size_leaf_vector":"1"}},{"base_weights":[1.3055337E-2,-1.4134376E-1,2.737099E-1,-2.56132E-1,8.559834E-2,2.0179473E-1,-3.666112E-2,-2.0347016E-1,-4.970653E-2,2.2690983E-1,-1.499757E-1,1.1761516E-1,-2.71501E-1,-4.634512E-2,1.2926692E-1,-5.671531E-1,1.3838448E-1,-1.9834135E-1,-5.1148348E-2],"categories":[],"categories_nodes":[],"categories_segments":[],"categories_sizes":[],"default_left":[0,0,0,0,0,0,0,0,0,0,0,0,0,0,0,0,0,0,0],"id":19,"left_children":[1,3,5,7,-1,-1,9,-1,11,13,-1,-1,15,-1,-1,17,-1,-1,-1],"loss_changes":[7.1815264E-1,6.246692E-1,8.444787E-1,7.8547305E-1,0E0,0E0,6.839225E-1,0E0,8.3079743E-1,3.517478E-1,0E0,0E0,1.4559284E0,0E0,0E0,5.0431967E-2,0E0,0E0,0E0],"parents":[2147483647,0,0,1,1,2,2,3,3,6,6,8,8,9,9,12,12,15,15],"right_children":[2,4,6,8,-1,-1,10,-1,12,14,-1,-1,16,-1,-1,18,-1,-1,-1],"split_conditions":[3.1257481E-3,1.4544666E-2,1E0,9.271264E-2,8.559834E-2,2.0179473E-1,2.9423938E0,-2.0347016E-1,5E-1,3.280856E0,-1.499757E-1,1.1761516E-1,3.0626137E0,-4.634512E-2,1.2926692E-1,3.2168355E0,1.3838448E-1,-1.9834135E-1,-5.1148348E-2],"split_indices":[23,22,23,6,0,0,27,0,6,26,0,0,1,0,0,6,0,0,0],"split_type":[0,0,0,0,0,0,0,0,0,0,0,0,0,0,0,0,0,0,0],"sum_hessian":[1.5883299E1,1.0262203E1,5.6210957E0,8.401602E0,1.8606014E0,1.948861E0,3.6722348E0,2.0086582E0,6.392944E0,2.665744E0,1.0064907E0,1.8802813E0,4.5126624E0,1.0134629E0,1.6522812E0,3.3764224E0,1.13624E0,2.1906092E0,1.1858133E0],"tree_param":{"num_deleted":"0","num_feature":"28","num_nodes":"19","size_leaf_vector":"1"}},{"base_weights":[1.1740033E-2,-7.664206E-2,3.65764E-1,-1.7659031E-1,3.122574E-1,1.7864877E-1,-1.339425E-2,-2.6838094E-1,1.1698318E-1,-3.423409E-2,1.8227842E-1,5.7984732E-2,-4.3533826E-1,-2.6548898E-1,1.632893E-1,-6.1827105E-1,4.500951E-2,-1.1079812E-2,-1.16132624E-1,1.6950833E-2,-2.5434324E-1],"categories":[],"categories_nodes":[],"categories_segments":[],"categories_sizes":[],"default_left":[0,0,0,0,0,0,0,0,0,0,0,0,0,0,0,0,0,0,0,0,0],"id":20,"left_children":[1,3,5,7,9,-1,-1,11,-1,-1,-1,13,15,17,-1,19,-1,-1,-1,-1,-1],"loss_changes":[5.257445E-1,5.820495E-1,3.4253702E-1,6.9867384E-1,4.6382657E-1,0E0,0E0,5.9315795E-1,0E0,0E0,0E0,8.382086E-1,8.4370744E-1,7.800092E-2,0E0,9.057131E-1,0E0,0E0,0E0,0E0,0E0],"parents":[2147483647,0,0,1,1,2,2,3,3,4,4,7,7,11,11,12,12,13,13,15,15],"right_children":[2,4,6,8,10,-1,-1,12,-1,-1,-1,14,16,18,-1,20,-1,-1,-1,-1,-1],"split_conditions":[1.4544666E-2,3.0105047E0,3.13085E0,1.65E0,3.0626137E0,1.7864877E-1,-1.339425E-2,2E0,1.1698318E-1,-3.423409E-2,1.8227842E-1,1.0552343E0,5.1613655E0,9.321183E-1,1.632893E-1,1.8893683E0,4.500951E-2,-1.1079812E-2,-1.16132624E-1,1.6950833E-2,-2.5434324E-1],"split_indices":[22,0,26,4,1,0,0,0,0,0,0,0,6,24,0,1,0,0,0,0,0],"split_type":[0,0,0,0,0,0,0,0,0,0,0,0,0,0,0,0,0,0,0,0,0],"sum_hessian":[1.4906728E1,1.2555707E1,2.3510208E0,1.0422913E1,2.1327946E0,1.218167E0,1.1328539E0,9.422536E0,1.0003759E0,1.1238854E0,1.0089092E0,3.4098027E0,6.0127335E0,2.3204324E0,1.0893704E0,4.538279E0,1.4744543E0,1.2586896E0,1.0617427E0,1.3432868E0,3.1949925E0],"tree_param":{"num_deleted":"0","num_feature":"28","num_nodes":"21","size_leaf_vector":"1"}},{"base_weights":[2.7746784E-2,-2.1545622E-1,1.7996228E-1,-1.2738941E-2,-1.7610289E-1,-8.471951E-2,2.6427603E-1,9.576462E-2,-2.2781928E-1,-9.0703025E-2,5.6335634E-1,-1.2441223E-1,3.5662305E-2,1.9483085E-1,-1.4414215E-1,2.2824709E-1,-1.9653814E-3,-4.7838304E-2,1.2059119E-1],"categories":[],"categories_nodes":[],"categories_segments":[],"categories_sizes":[],"default_left":[0,0,0,0,0,0,0,0,0,0,0,0,0,0,0,0,0,0,0],"id":21,"left_children":[1,3,5,7,-1,-1,9,-1,11,13,15,-1,-1,17,-1,-1,-1,-1,-1],"loss_changes":[6.0581565E-1,4.709225E-1,4.631364E-1,4.3910614E-1,0E0,0E0,1.0008123E0,0E0,2.8887275E-1,6.447097E-1,5.66962E-1,0E0,0E0,3.2606098E-1,0E0,0E0,0E0,0E0,0E0],"parents":[2147483647,0,0,1,1,2,2,3,3,6,6,8,8,9,9,10,10,13,13],"right_children":[2,4,6,8,-1,-1,10,-1,12,14,16,-1,-1,18,-1,-1,-1,-1,-1],"split_conditions":[3.1257481E-3,3.3685224E0,2.723924E0,2.723924E0,-1.7610289E-1,-8.471951E-2,2.0152206E0,9.576462E-2,1.4544666E-2,3.5666046E0,2.944439E0,-1.2441223E-1,3.5662305E-2,1.0552343E0,-1.4414215E-1,2.2824709E-1,-1.9653814E-3,-4.7838304E-2,1.2059119E-1],"split_indices":[24,26,27,27,0,0,0,0,22,26,27,0,0,0,0,0,0,0,0],"split_type":[0,0,0,0,0,0,0,0,0,0,0,0,0,0,0,0,0,0,0],"sum_hessian":[1.4317474E1,5.3515477E0,8.965927E0,4.131637E0,1.2199104E0,1.020473E0,7.945454E0,1.4340935E0,2.6975436E0,3.9517913E0,3.993663E0,1.6252568E0,1.0722868E0,2.5695553E0,1.3822359E0,2.7171893E0,1.2764738E0,1.0329591E0,1.5365963E0],"tree_param":{"num_deleted":"0","num_feature":"28","num_nodes":"19","size_leaf_vector":"1"}},{"base_weights":[1.6707428E-2,-1.8845196E-1,1.4915885E-1,-1.0027622E-2,-1.6213965E-1,4.205404E-1,-1.7494414E-2,-9.247769E-2,1.5867217E-1,1.9036046E-1,-2.0189028E-2,-1.4799562E-1,7.4857816E-2,1.3783929E-1,-4.154937E-2,7.374923E-2,-3.1637245E-1,-1.439109E-1,3.2304293E-3],"categories":[],"categories_nodes":[],"categories_segments":[],"categories_sizes":[],"default_left":[0,0,0,0,0,0,0,0,0,0,0,0,0,0,0,0,0,0,0],"id":22,"left_children":[1,3,5,7,-1,9,11,-1,13,-1,-1,15,-1,-1,-1,-1,17,-1,-1],"loss_changes":[4.2210123E-1,3.7959647E-1,4.310841E-1,3.0484658E-1,0E0,4.189844E-1,2.7264953E-1,0E0,4.1307035E-1,0E0,0E0,4.2070517E-1,0E0,0E0,0E0,0E0,2.220971E-1,0E0,0E0],"parents":[2147483647,0,0,1,1,2,2,3,3,5,5,6,6,8,8,11,11,16,16],"right_children":[2,4,6,8,-1,10,12,-1,14,-1,-1,16,-1,-1,-1,-1,18,-1,-1],"split_conditions":[3.1257481E-3,3.3685224E0,1E0,1.0265322E0,-1.6213965E-1,9.823786E-1,6.650367E0,-9.247769E-2,2.723924E0,1.9036046E-1,-2.0189028E-2,2E0,7.4857816E-2,1.3783929E-1,-4.154937E-2,7.374923E-2,2.0183907E0,-1.439109E-1,3.2304293E-3],"split_indices":[24,26,5,1,0,25,6,0,27,0,0,1,0,0,0,0,1,0,0],"split_type":[0,0,0,0,0,0,0,0,0,0,0,0,0,0,0,0,0,0,0],"sum_hessian":[1.3499043E1,5.1300693E0,8.368974E0,4.0869913E0,1.0430781E0,2.6044269E0,5.764547E0,1.1777227E0,2.9092686E0,1.6012936E0,1.0031332E0,4.1715384E0,1.5930089E0,1.1744109E0,1.7348577E0,1.1115847E0,3.0599535E0,1.7299132E0,1.3300402E0],"tree_param":{"num_deleted":"0","num_feature":"28","num_nodes":"19","size_leaf_vector":"1"}},{"base_weights":[1.43155055E-2,-1.0425408E-1,2.2281577E-1,4.6185974E-2,-3.818049E-1,1.7015257E-1,-2.0476177E-2,-1.0275214E-1,2.3860367E-1,-1.4815575E-1,-1.6691715E-2,9.7826935E-2,-8.066182E-2,3.3830288E-1,-6.3559264E-3,1.2283863E-1,3.546478E-2],"categories":[],"categories_nodes":[],"categories_segments":[],"categories_sizes":[],"default_left":[0,0,0,0,0,0,0,0,0,0,0,0,0,0,0,0,0],"id":23,"left_children":[1,3,5,7,9,-1,11,-1,13,-1,-1,-1,-1,15,-1,-1,-1],"loss_changes":[3.7042552E-1,4.199033E-1,4.6486607E-1,6.157168E-1,1.002264E-1,0E0,4.4367582E-1,0E0,1.4612672E-1,0E0,0E0,0E0,0E0,1.3238609E-2,0E0,0E0,0E0],"parents":[2147483647,0,0,1,1,2,2,3,3,4,4,6,6,8,8,13,13],"right_children":[2,4,6,8,10,-1,12,-1,14,-1,-1,-1,-1,16,-1,-1,-1],"split_conditions":[3.1257481E-3,3.4011974E0,1E0,1.0265322E0,1.0002823E1,1.7015257E-1,1E0,-1.0275214E-1,3.152297E0,-1.4815575E-1,-1.6691715E-2,9.7826935E-2,-8.066182E-2,1.9497999E0,-6.3559264E-3,1.2283863E-1,3.546478E-2],"split_indices":[23,26,23,1,6,0,6,0,26,0,0,0,0,0,0,0,0],"split_type":[0,0,0,0,0,0,0,0,0,0,0,0,0,0,0,0,0],"sum_hessian":[1.3044132E1,8.634092E0,4.4100404E0,6.139767E0,2.4943252E0,1.27464E0,3.1354E0,1.7747225E0,4.3650446E0,1.4738871E0,1.0204381E0,1.1784428E0,1.9569573E0,2.9360611E0,1.4289836E0,1.5684792E0,1.367582E0],"tree_param":{"num_deleted":"0","num_feature":"28","num_nodes":"17","size_leaf_vector":"1"}},{"base_weights":[1.666658E-2,-1.0780322E-1,2.1609451E-1,6.1839912E-2,-2.1779035E-1,1.9582047E-1,-1.4745297E-1,-4.3717346E-1,4.853422E-2,-9.179055E-2,2.5147859E-2,-2.8242273E-3,-1.8178552E-1,1.3607089E-1,-9.087327E-2],"categories":[],"categories_nodes":[],"categories_segments":[],"categories_sizes":[],"default_left":[0,0,0,0,0,0,0,0,0,0,0,0,0,0,0],"id":24,"left_children":[1,3,5,-1,7,-1,9,11,13,-1,-1,-1,-1,-1,-1],"loss_changes":[3.6224818E-1,3.5823262E-1,9.820522E-1,0E0,4.4227254E-1,0E0,1.6718698E-1,2.8679293E-1,7.2885793E-1,0E0,0E0,0E0,0E0,0E0,0E0],"parents":[2147483647,0,0,1,1,2,2,4,4,6,6,7,7,8,8],"right_children":[2,4,6,-1,8,-1,10,12,14,-1,-1,-1,-1,-1,-1],"split_conditions":[2.823267E-4,1E0,1E0,6.1839912E-2,2.013745E0,1.9582047E-1,3.3392258E0,4.975468E-1,2.8835897E0,-9.179055E-2,2.5147859E-2,-2.8242273E-3,-1.8178552E-1,1.3607089E-1,-9.087327E-2],"split_indices":[25,5,25,0,6,0,26,6,27,0,0,0,0,0,0],"split_type":[0,0,0,0,0,0,0,0,0,0,0,0,0,0,0],"sum_hessian":[1.2654911E1,8.07467E0,4.5802402E0,1.8681769E0,6.2064934E0,1.7195306E0,2.86071E0,3.0514088E0,3.1550844E0,1.5057497E0,1.3549603E0,1.1620454E0,1.8893635E0,1.3307871E0,1.8242973E0],"tree_param":{"num_deleted":"0","num_feature":"28","num_nodes":"15","size_leaf_vector":"1"}},{"base_weights":[1.7035697E-2,-1.6842565E-1,1.3875361E-1,9.141832E-3,-1.04181565E-1,2.222712E-1,-5.876361E-2,-7.874445E-2,1.07414305E-1,1.5033762E-1,5.2950952E-2,-1.13639615E-1,1.0203157E-1,6.572098E-2,-8.9696094E-2],"categories":[],"categories_nodes":[],"categories_segments":[],"categories_sizes":[],"default_left":[0,0,0,0,0,0,0,0,0,0,0,0,0,0,0],"id":25,"left_children":[1,3,5,7,-1,9,-1,-1,-1,-1,11,13,-1,-1,-1],"loss_changes":[3.206666E-1,1.8324468E-1,2.810853E-1,4.5596993E-1,0E0,3.1674594E-1,0E0,0E0,0E0,0E0,3.085396E-1,3.3190092E-1,0E0,0E0,0E0],"parents":[2147483647,0,0,1,1,2,2,3,3,5,5,10,10,11,11],"right_children":[2,4,6,8,-1,10,-1,-1,-1,-1,12,14,-1,-1,-1],"split_conditions":[3.1257481E-3,3.0965676E0,3.6888795E0,2.835893E0,-1.04181565E-1,1E0,-5.876361E-2,-7.874445E-2,1.07414305E-1,1.5033762E-1,5.1613655E0,1.9967356E0,1.0203157E-1,6.572098E-2,-8.9696094E-2],"split_indices":[24,26,26,27,0,5,0,0,0,0,6,0,0,0,0],"split_type":[0,0,0,0,0,0,0,0,0,0,0,0,0,0,0],"sum_hessian":[1.2169902E1,4.670196E0,7.499706E0,2.8196201E0,1.8505758E0,6.2704906E0,1.2292154E0,1.7246672E0,1.094953E0,1.6286424E0,4.641848E0,3.3200183E0,1.3218298E0,1.1227223E0,2.197296E0],"tree_param":{"num_deleted":"0","num_feature":"28","num_nodes":"15","size_leaf_vector":"1"}},{"base_weights":[2.0927563E-2,-1.331151E-1,1.7610916E-1,1.400491E-1,-4.3227106E-1,1.7034122E-1,-1.5907642E-2,-6.672573E-2,3.2050067E-1,-1.7567627E-1,-9.221294E-3,-2.524565E-1,8.374798E-2,1.4886132E-1,2.8175137E-3,5.1511798E-2,-1.6174002E-1],"categories":[],"categories_nodes":[],"categories_segments":[],"categories_sizes":[],"default_left":[0,0,0,0,0,0,0,0,0,0,0,0,0,0,0,0,0],"id":26,"left_children":[1,3,5,7,9,-1,11,-1,13,-1,-1,15,-1,-1,-1,-1,-1],"loss_changes":[3.2495236E-1,6.2433845E-1,5.139888E-1,3.5656846E-1,1.9978559E-1,0E0,4.5282644E-1,0E0,1.7690793E-1,0E0,0E0,5.261407E-1,0E0,0E0,0E0,0E0,0E0],"parents":[2147483647,0,0,1,1,2,2,3,3,4,4,6,6,8,8,11,11],"right_children":[2,4,6,8,10,-1,12,-1,14,-1,-1,16,-1,-1,-1,-1,-1],"split_conditions":[2.0152206E0,2E0,3E0,3.61053E-1,3.2168355E0,1.7034122E-1,3.3392258E0,-6.672573E-2,1.4530795E0,-1.7567627E-1,-9.221294E-3,1.9748623E0,8.374798E-2,1.4886132E-1,2.8175137E-3,5.1511798E-2,-1.6174002E-1],"split_indices":[0,0,0,6,6,0,26,0,6,0,0,1,0,0,0,0,0],"split_type":[0,0,0,0,0,0,0,0,0,0,0,0,0,0,0,0,0],"sum_hessian":[1.1613042E1,5.8992686E0,5.7137737E0,3.3615944E0,2.5376742E0,1.2358041E0,4.4779696E0,1.0400016E0,2.3215926E0,1.5047435E0,1.0329306E0,2.5655992E0,1.9123702E0,1.1034487E0,1.2181439E0,1.1964291E0,1.3691701E0],"tree_param":{"num_deleted":"0","num_feature":"28","num_nodes":"17","size_leaf_vector":"1"}},{"base_weights":[1.9090168E-2,-9.159287E-2,2.0754936E-1,4.412782E-2,-3.2334656E-1,3.6327863E-1,-4.540961E-2,-9.308462E-2,2.3120749E-1,-1.19318746E-1,-2.4871385E-2,6.2468546E-3,1.4571413E-1,1.23662196E-1,2.7834797E-2,7.0868984E-2,-5.884634E-2],"categories":[],"categories_nodes":[],"categories_segments":[],"categories_sizes":[],"default_left":[0,0,0,0,0,0,0,0,0,0,0,0,0,0,0,0,0],"id":27,"left_children":[1,3,5,7,9,11,-1,-1,13,-1,-1,-1,-1,-1,15,-1,-1],"loss_changes":[2.7300516E-1,2.7738163E-1,3.2392246E-1,4.798659E-1,2.4428904E-2,1.4291352E-1,0E0,0E0,1.5792184E-1,0E0,0E0,0E0,0E0,0E0,1.9754747E-1,0E0,0E0],"parents":[2147483647,0,0,1,1,2,2,3,3,4,4,5,5,8,8,14,14],"right_children":[2,4,6,8,10,12,-1,-1,14,-1,-1,-1,-1,-1,16,-1,-1],"split_conditions":[3.1257481E-3,3.4011974E0,2.944439E0,1.0265322E0,9.68213E0,3.2612708E0,-4.540961E-2,-9.308462E-2,2.7725887E0,-1.19318746E-1,-2.4871385E-2,6.2468546E-3,1.4571413E-1,1.23662196E-1,3.13085E0,7.0868984E-2,-5.884634E-2],"split_indices":[23,26,27,1,6,26,0,0,27,0,0,0,0,0,26,0,0],"split_type":[0,0,0,0,0,0,0,0,0,0,0,0,0,0,0,0,0],"sum_hessian":[1.1176626E1,7.3650727E0,3.8115535E0,5.1554847E0,2.2095878E0,2.6497128E0,1.1618407E0,1.5536478E0,3.6018372E0,1.1879327E0,1.0216552E0,1.005991E0,1.6437219E0,1.3624301E0,2.239407E0,1.1317762E0,1.1076307E0],"tree_param":{"num_deleted":"0","num_feature":"28","num_nodes":"17","size_leaf_vector":"1"}},{"base_weights":[1.4356071E-2,-6.457736E-2,9.603433E-2,-1.6482608E-1,9.683479E-2,-2.3964874E-1,5.148611E-2,-1.6489503E-1,-5.565087E-2,5.956638E-2,-1.7623417E-1,-1.15630694E-1,1.6920825E-2],"categories":[],"categories_nodes":[],"categories_segments":[],"categories_sizes":[],"default_left":[0,0,0,0,0,0,0,0,0,0,0,0,0],"id":28,"left_children":[1,3,-1,5,-1,7,-1,-1,9,-1,11,-1,-1],"loss_changes":[3.0965972E-1,4.5508853E-1,0E0,2.647599E-1,0E0,4.0773803E-1,0E0,0E0,2.1691734E-1,0E0,2.434355E-1,0E0,0E0],"parents":[2147483647,0,0,1,1,3,3,5,5,8,8,10,10],"right_children":[2,4,-1,6,-1,8,-1,-1,10,-1,12,-1,-1],"split_conditions":[1.4544666E-2,3.0105047E0,9.603433E-2,7.0352037E-3,9.683479E-2,2.5605372E-1,5.148611E-2,-1.6489503E-1,9.823786E-1,5.956638E-2,3.2983997E0,-1.15630694E-1,1.6920825E-2],"split_indices":[22,0,0,9,0,6,0,0,6,0,26,0,0],"split_type":[0,0,0,0,0,0,0,0,0,0,0,0,0],"sum_hessian":[1.0974017E1,9.349246E0,1.6247704E0,7.883489E0,1.4657574E0,6.6846004E0,1.1988888E0,1.7495979E0,4.9350023E0,1.3797307E0,3.5552716E0,1.526098E0,2.0291736E0],"tree_param":{"num_deleted":"0","num_feature":"28","num_nodes":"13","size_leaf_vector":"1"}},{"base_weights":[1.3082542E-2,-1.6926466E-1,1.3269551E-1,-2.5960946E-1,2.2218622E-2,-4.5718133E-2,2.0245372E-1,2.0917435E-4,-1.4526862E-1,3.359489E-1,-4.0132806E-2,1.2952873E-1,1.4788638E-1,8.387613E-2,-3.0096078E-2],"categories":[],"categories_nodes":[],"categories_segments":[],"categories_sizes":[],"default_left":[0,0,0,0,0,0,0,0,0,0,0,0,0,0,0],"id":29,"left_children":[1,3,5,7,-1,-1,9,-1,-1,11,-1,13,-1,-1,-1],"loss_changes":[2.7897906E-1,1.3130254E-1,1.8324354E-1,2.3069578E-1,0E0,0E0,3.4054556E-1,0E0,0E0,9.815878E-2,0E0,1.4931847E-1,0E0,0E0,0E0],"parents":[2147483647,0,0,1,1,2,2,3,3,6,6,9,9,11,11],"right_children":[2,4,6,8,-1,-1,10,-1,-1,12,-1,14,-1,-1,-1],"split_conditions":[3.1257481E-3,2.013745E0,1.0552343E0,4.3516767E-1,2.2218622E-2,-4.5718133E-2,2.944439E0,2.0917435E-4,-1.4526862E-1,2.823267E-4,-4.0132806E-2,3.4011974E0,1.4788638E-1,8.387613E-2,-3.0096078E-2],"split_indices":[24,6,0,6,0,0,27,0,0,25,0,26,0,0,0],"split_type":[0,0,0,0,0,0,0,0,0,0,0,0,0,0,0],"sum_hessian":[1.0760917E1,4.0982013E0,6.6627154E0,2.9397748E0,1.1584263E0,1.0769233E0,5.585792E0,1.8234785E0,1.1162964E0,3.9989152E0,1.5868771E0,2.51602E0,1.4828951E0,1.3913039E0,1.1247163E0],"tree_param":{"num_deleted":"0","num_feature":"28","num_nodes":"15","size_leaf_vector":"1"}},{"base_weights":[9.286327E-3,-1.14492394E-1,1.7159322E-1,4.380067E-2,-1.596562E-1,1.6366346E-1,-1.0084499E-1,-1.8297417E-1,2.7321717E-1,-8.4441096E-2,5.804045E-2,-1.0574422E-1,6.8300175E-3,-2.929293E-3,1.1880714E-1],"categories":[],"categories_nodes":[],"categories_segments":[],"categories_sizes":[],"default_left":[0,0,0,0,0,0,0,0,0,0,0,0,0,0,0],"id":30,"left_children":[1,3,5,7,-1,-1,9,11,13,-1,-1,-1,-1,-1,-1],"loss_changes":[2.5024974E-1,4.9353898E-1,6.017481E-1,3.6638162E-1,0E0,0E0,2.6436663E-1,1.3556805E-1,1.2286398E-1,0E0,0E0,0E0,0E0,0E0,0E0],"parents":[2147483647,0,0,1,1,2,2,3,3,6,6,7,7,8,8],"right_children":[2,4,6,8,-1,-1,10,12,14,-1,-1,-1,-1,-1,-1],"split_conditions":[3.3392258E0,3.295837E0,3.465736E0,2.7750883E0,-1.596562E-1,1.6366346E-1,3.1257481E-3,3.8769758E-1,1.7439463E0,-8.4441096E-2,5.804045E-2,-1.0574422E-1,6.8300175E-3,-2.929293E-3,1.1880714E-1],"split_indices":[26,26,26,27,0,0,23,6,0,0,0,0,0,0,0],"split_type":[0,0,0,0,0,0,0,0,0,0,0,0,0,0,0],"sum_hessian":[1.0478448E1,6.1119423E0,4.366505E0,5.0813932E0,1.030549E0,1.417869E0,2.9486363E0,2.6572134E0,2.42418E0,1.8542725E0,1.0943638E0,1.0658506E0,1.5913628E0,1.012222E0,1.411958E0],"tree_param":{"num_deleted":"0","num_feature":"28","num_nodes":"15","size_leaf_vector":"1"}},{"base_weights":[6.587039E-3,-6.338238E-2,8.530231E-2,-1.459989E-1,7.562965E-2,-2.0777148E-1,4.0264606E-2,-3.084674E-1,6.1612997E-2,2.347836E-2,-3.995595E-1,-1.633282E-1,-3.161981E-2],"categories":[],"categories_nodes":[],"categories_segments":[],"categories_sizes":[],"default_left":[0,0,0,0,0,0,0,0,0,0,0,0,0],"id":31,"left_children":[1,3,-1,5,-1,7,-1,9,-1,-1,11,-1,-1],"loss_changes":[2.3562331E-1,2.9122835E-1,0E0,1.7274876E-1,0E0,3.6495745E-1,0E0,2.506947E-1,0E0,0E0,1.6442764E-1,0E0,0E0],"parents":[2147483647,0,0,1,1,3,3,5,5,7,7,10,10],"right_children":[2,4,-1,6,-1,8,-1,10,-1,-1,12,-1,-1],"split_conditions":[1.4544666E-2,3.0105047E0,8.530231E-2,7.0352037E-3,7.562965E-2,1.8154114E0,4.0264606E-2,2.944439E0,6.1612997E-2,2.347836E-2,3.1257481E-3,-1.633282E-1,-3.161981E-2],"split_indices":[22,0,0,9,0,3,0,26,0,0,23,0,0],"split_type":[0,0,0,0,0,0,0,0,0,0,0,0,0],"sum_hessian":[1.0196766E1,8.761457E0,1.4353081E0,7.368938E0,1.3925196E0,6.249727E0,1.1192113E0,5.2287145E0,1.0210123E0,1.0236593E0,4.205055E0,2.2474477E0,1.9576075E0],"tree_param":{"num_deleted":"0","num_feature":"28","num_nodes":"13","size_leaf_vector":"1"}},{"base_weights":[1.2195446E-2,-9.701709E-2,1.9688924E-1,-2.115745E-1,7.330636E-2,1.5577969E-1,-5.5949897E-2,3.350121E-2,-1.2347854E-1,1.3120048E-1,-6.460079E-2,-5.7112414E-2,3.3895187E-2],"categories":[],"categories_nodes":[],"categories_segments":[],"categories_sizes":[],"default_left":[0,0,0,0,0,0,0,0,0,0,0,0,0],"id":32,"left_children":[1,3,5,7,9,-1,11,-1,-1,-1,-1,-1,-1],"loss_changes":[2.4130699E-1,1.636545E-1,3.8961607E-1,3.5609955E-1,4.930171E-1,0E0,9.830862E-2,0E0,0E0,0E0,0E0,0E0,0E0],"parents":[2147483647,0,0,1,1,2,2,3,3,4,4,6,6],"right_children":[2,4,6,8,10,-1,12,-1,-1,-1,-1,-1,-1],"split_conditions":[2.823267E-4,3.3392258E0,1E0,4.975468E-1,3.465736E0,1.5577969E-1,3.3392258E0,3.350121E-2,-1.2347854E-1,1.3120048E-1,-6.460079E-2,-5.7112414E-2,3.3895187E-2],"split_indices":[25,26,25,6,26,0,26,0,0,0,0,0,0],"split_type":[0,0,0,0,0,0,0,0,0,0,0,0,0],"sum_hessian":[1.00161495E1,6.5925674E0,3.4235818E0,3.7967372E0,2.79583E0,1.0416775E0,2.3819044E0,1.6201625E0,2.1765747E0,1.0086282E0,1.7872018E0,1.2557526E0,1.1261517E0],"tree_param":{"num_deleted":"0","num_feature":"28","num_nodes":"13","size_leaf_vector":"1"}},{"base_weights":[1.9525837E-2,-1.4846185E-1,1.2827456E-1,3.0244462E-2,-2.6399696E-1,1.9050874E-1,-3.200367E-2,-9.707747E-2,-1.880857E-2,3.9231953E-1,-7.419776E-2,-1.742814E-2,1.8312463E-1,-1.05123095E-1,7.501861E-2],"categories":[],"categories_nodes":[],"categories_segments":[],"categories_sizes":[],"default_left":[0,0,0,0,0,0,0,0,0,0,0,0,0,0,0],"id":33,"left_children":[1,3,5,-1,7,9,-1,-1,-1,11,13,-1,-1,-1,-1],"loss_changes":[2.1597889E-1,1.6196874E-1,1.2385253E-1,0E0,2.1552488E-2,3.4731358E-1,0E0,0E0,0E0,3.8309616E-1,3.9373043E-1,0E0,0E0,0E0,0E0],"parents":[2147483647,0,0,1,1,2,2,4,4,5,5,9,9,10,10],"right_children":[2,4,6,-1,8,10,-1,-1,-1,12,14,-1,-1,-1,-1],"split_conditions":[3.1257481E-3,1.9208419E0,4E0,3.0244462E-2,2.0183907E0,2E0,-3.200367E-2,-9.707747E-2,-1.880857E-2,2.7750883E0,2.0183907E0,-1.742814E-2,1.8312463E-1,-1.05123095E-1,7.501861E-2],"split_indices":[24,0,1,0,1,6,0,0,0,27,1,0,0,0,0],"split_type":[0,0,0,0,0,0,0,0,0,0,0,0,0,0,0],"sum_hessian":[9.780065E0,3.6997533E0,6.0803113E0,1.2120541E0,2.487699E0,4.956582E0,1.1237293E0,1.4507234E0,1.0369756E0,2.5388694E0,2.4177127E0,1.0676278E0,1.4712416E0,1.2620339E0,1.1556787E0],"tree_param":{"num_deleted":"0","num_feature":"28","num_nodes":"15","size_leaf_vector":"1"}},{"base_weights":[1.7859519E-2,-4.5879405E-2,7.894401E-2,-2.918358E-1,8.40808E-2,-1.2127475E-1,-1.5528173E-2,-6.806146E-2,1.2757675E-1,8.194597E-2,-2.4869588E-1,-1.0341444E-1,-6.772365E-3],"categories":[],"categories_nodes":[],"categories_segments":[],"categories_sizes":[],"default_left":[0,0,0,0,0,0,0,0,0,0,0,0,0],"id":34,"left_children":[1,3,-1,5,7,-1,-1,9,-1,-1,11,-1,-1],"loss_changes":[1.7498644E-1,3.161349E-1,0E0,7.0225656E-2,3.790599E-1,0E0,0E0,4.0858114E-1,0E0,0E0,8.204514E-2,0E0,0E0],"parents":[2147483647,0,0,1,1,3,3,4,4,7,7,10,10],"right_children":[2,4,-1,6,8,-1,-1,10,-1,-1,12,-1,-1],"split_conditions":[1.4544666E-2,2.5605372E-1,7.894401E-2,2.835893E0,3.0626137E0,-1.2127475E-1,-1.5528173E-2,7.5E-1,1.2757675E-1,8.194597E-2,2.0183907E0,-1.0341444E-1,-6.772365E-3],"split_indices":[22,6,0,27,1,0,0,6,0,0,1,0,0],"split_type":[0,0,0,0,0,0,0,0,0,0,0,0,0],"sum_hessian":[9.420231E0,8.122517E0,1.2977142E0,2.377464E0,5.7450523E0,1.1535025E0,1.2239616E0,4.526867E0,1.2181851E0,1.389653E0,3.1372142E0,1.8339764E0,1.3032378E0],"tree_param":{"num_deleted":"0","num_feature":"28","num_nodes":"13","size_leaf_vector":"1"}},{"base_weights":[1.6358227E-2,-1.4049627E-1,1.215587E-1,1.6967388E-2,-8.0846824E-2,1.9094948E-1,-3.5978355E-2,3.6246437E-1,-3.4513526E-2,-6.0923845E-3,1.6677675E-1,-7.276907E-2,6.2327035E-2],"categories":[],"categories_nodes":[],"categories_segments":[],"categories_sizes":[],"default_left":[0,0,0,0,0,0,0,0,0,0,0,0,0],"id":35,"left_children":[1,3,5,-1,-1,7,-1,9,11,-1,-1,-1,-1],"loss_changes":[1.8642364E-1,1.3175407E-1,1.3481776E-1,0E0,0E0,2.2805262E-1,0E0,2.521465E-1,2.1779987E-1,0E0,0E0,0E0,0E0],"parents":[2147483647,0,0,1,1,2,2,5,5,7,7,8,8],"right_children":[2,4,6,-1,-1,8,-1,10,12,-1,-1,-1,-1],"split_conditions":[3.1257481E-3,2.723924E0,4E0,1.6967388E-2,-8.0846824E-2,2E0,-3.5978355E-2,2.7750883E0,2.0183907E0,-6.0923845E-3,1.6677675E-1,-7.276907E-2,6.2327035E-2],"split_indices":[24,27,1,0,0,6,0,27,1,0,0,0,0],"split_type":[0,0,0,0,0,0,0,0,0,0,0,0,0],"sum_hessian":[9.262614E0,3.583735E0,5.678879E0,1.6399838E0,1.9437513E0,4.5738616E0,1.1050174E0,2.252607E0,2.3212545E0,1.0567564E0,1.1958508E0,1.2481731E0,1.0730813E0],"tree_param":{"num_deleted":"0","num_feature":"28","num_nodes":"13","size_leaf_vector":"1"}},{"base_weights":[1.8185E-2,1.3054818E-1,-1.6299032E-1,-1.2378266E-1,2.707893E-1,-8.2586855E-2,2.644426E-2,-7.685019E-2,1.9143427E-2,4.2757055E-1,-3.879046E-2,3.2858375E-2,1.5276328E-1],"categories":[],"categories_nodes":[],"categories_segments":[],"categories_sizes":[],"default_left":[0,0,0,0,0,0,0,0,0,0,0,0,0],"id":36,"left_children":[1,3,5,7,9,-1,-1,-1,-1,11,-1,-1,-1],"loss_changes":[2.2505292E-1,2.7368543E-1,1.4487144E-1,9.282523E-2,3.4721094E-1,0E0,0E0,0E0,0E0,3.7074625E-2,0E0,0E0,0E0],"parents":[2147483647,0,0,1,1,2,2,3,3,4,4,9,9],"right_children":[2,4,6,8,10,-1,-1,-1,-1,12,-1,-1,-1],"split_conditions":[3.4011974E0,3.0493448E0,2.823267E-4,3.3244225E-1,5E0,-8.2586855E-2,2.644426E-2,-7.685019E-2,1.9143427E-2,2.6977365E0,-3.879046E-2,3.2858375E-2,1.5276328E-1],"split_indices":[26,26,25,6,6,0,0,0,0,0,0,0,0],"split_type":[0,0,0,0,0,0,0,0,0,0,0,0,0],"sum_hessian":[9.009849E0,5.7334538E0,3.2763953E0,2.0795305E0,3.653923E0,2.1975615E0,1.0788339E0,1.0048617E0,1.0746688E0,2.5758545E0,1.0780686E0,1.0044509E0,1.5714036E0],"tree_param":{"num_deleted":"0","num_feature":"28","num_nodes":"13","size_leaf_vector":"1"}},{"base_weights":[1.6362635E-2,8.6193234E-2,-5.202727E-2,-3.462758E-2,1.1928775E-1,-9.038277E-2,1.2954025E-1,-9.8816216E-2,1.21143185E-1,2.5534956E-2,-6.6249214E-2],"categories":[],"categories_nodes":[],"categories_segments":[],"categories_sizes":[],"default_left":[0,0,0,0,0,0,0,0,0,0,0],"id":37,"left_children":[1,3,-1,5,-1,-1,7,9,-1,-1,-1],"loss_changes":[1.4651452E-1,3.1197244E-1,0E0,3.2924932E-1,0E0,0E0,3.407076E-1,9.5642686E-2,0E0,0E0,0E0],"parents":[2147483647,0,0,1,1,3,3,6,6,7,7],"right_children":[2,4,-1,6,-1,-1,8,10,-1,-1,-1],"split_conditions":[2.944439E0,3.0626137E0,-5.202727E-2,2.723924E0,1.1928775E-1,-9.038277E-2,2.0152206E0,3.1780539E0,1.21143185E-1,2.5534956E-2,-6.6249214E-2],"split_indices":[27,1,0,27,0,0,0,26,0,0,0],"split_type":[0,0,0,0,0,0,0,0,0,0,0],"sum_hessian":[8.927353E0,6.9251423E0,2.0022101E0,5.629846E0,1.2952963E0,1.8270708E0,3.8027751E0,2.4241498E0,1.3786256E0,1.0873749E0,1.3367747E0],"tree_param":{"num_deleted":"0","num_feature":"28","num_nodes":"11","size_leaf_vector":"1"}},{"base_weights":[1.7754102E-2,-1.3001546E-1,1.2133612E-1,3.7761442E-2,-2.5263378E-1,1.8479283E-1,-3.1331956E-2,-2.3058856E-2,-8.971733E-2,1.10755704E-1,-6.800672E-2,-4.000816E-2,8.967935E-3],"categories":[],"categories_nodes":[],"categories_segments":[],"categories_sizes":[],"default_left":[0,0,0,0,0,0,0,0,0,0,0,0,0],"id":38,"left_children":[1,3,5,-1,7,9,-1,-1,-1,-1,11,-1,-1],"loss_changes":[1.652122E-1,1.7318499E-1,1.0894364E-1,0E0,4.5852214E-3,2.6961464E-1,0E0,0E0,0E0,0E0,2.3543999E-2,0E0,0E0],"parents":[2147483647,0,0,1,1,2,2,4,4,5,5,10,10],"right_children":[2,4,6,-1,8,10,-1,-1,-1,-1,12,-1,-1],"split_conditions":[3.1257481E-3,1.9208419E0,3.6888795E0,3.7761442E-2,2.723924E0,1E0,-3.1331956E-2,-2.3058856E-2,-8.971733E-2,1.10755704E-1,2.0183907E0,-4.000816E-2,8.967935E-3],"split_indices":[24,0,26,0,27,23,0,0,0,0,1,0,0],"split_type":[0,0,0,0,0,0,0,0,0,0,0,0,0],"sum_hessian":[8.763099E0,3.5061088E0,5.25699E0,1.1272236E0,2.3788853E0,4.2453194E0,1.0116707E0,1.0518879E0,1.3269974E0,2.188576E0,2.0567434E0,1.016174E0,1.0405693E0],"tree_param":{"num_deleted":"0","num_feature":"28","num_nodes":"13","size_leaf_vector":"1"}},{"base_weights":[1.0270763E-2,9.6685804E-2,-1.2602967E-1,-3.8321692E-2,1.9927783E-1,-7.934651E-2,3.0517898E-2,3.1432432E-1,-3.330906E-2,-1.3021431E-2,1.4070788E-1],"categories":[],"categories_nodes":[],"categories_segments":[],"categories_sizes":[],"default_left":[0,0,0,0,0,0,0,0,0,0,0],"id":39,"left_children":[1,3,5,-1,7,-1,-1,9,-1,-1,-1],"loss_changes":[1.25245E-1,1.737392E-1,1.5804467E-1,0E0,2.0663327E-1,0E0,0E0,2.2901803E-1,0E0,0E0,0E0],"parents":[2147483647,0,0,1,1,2,2,4,4,7,7],"right_children":[2,4,6,-1,8,-1,-1,10,-1,-1,-1],"split_conditions":[3.4011974E0,2.9990442E0,3.1257481E-3,-3.8321692E-2,5E0,-7.934651E-2,3.0517898E-2,2.0152206E0,-3.330906E-2,-1.3021431E-2,1.4070788E-1],"split_indices":[26,26,23,0,6,0,0,0,0,0,0],"split_type":[0,0,0,0,0,0,0,0,0,0,0],"sum_hessian":[8.598899E0,5.4403415E0,3.1585574E0,1.6298512E0,3.8104904E0,1.8640652E0,1.2944921E0,2.7704172E0,1.040073E0,1.053578E0,1.7168393E0],"tree_param":{"num_deleted":"0","num_feature":"28","num_nodes":"11","size_leaf_vector":"1"}},{"base_weights":[8.254303E-3,-9.275591E-2,1.4694825E-1,-2.4910721E-1,1.11745656E-1,-4.667354E-2,1.0580791E-1,1.5512839E-2,-1.1445945E-1,7.7821635E-2,-3.496761E-2],"categories":[],"categories_nodes":[],"categories_segments":[],"categories_sizes":[],"default_left":[0,0,0,0,0,0,0,0,0,0,0],"id":40,"left_children":[1,3,5,7,9,-1,-1,-1,-1,-1,-1],"loss_changes":[1.467846E-1,2.2327596E-1,3.2825273E-1,1.7005534E-1,1.427894E-1,0E0,0E0,0E0,0E0,0E0,0E0],"parents":[2147483647,0,0,1,1,2,2,3,3,4,4],"right_children":[2,4,6,8,10,-1,-1,-1,-1,-1,-1],"split_conditions":[2.013745E0,2.835893E0,3.3392258E0,2.7080503E0,2.3060515E0,-4.667354E-2,1.0580791E-1,1.5512839E-2,-1.1445945E-1,7.7821635E-2,-3.496761E-2],"split_indices":[6,27,26,27,1,0,0,0,0,0,0],"split_type":[0,0,0,0,0,0,0,0,0,0,0],"sum_hessian":[8.504568E0,5.1124277E0,3.3921406E0,2.7736895E0,2.3387382E0,1.471815E0,1.9203258E0,1.0341096E0,1.73958E0,1.3374761E0,1.0012622E0],"tree_param":{"num_deleted":"0","num_feature":"28","num_nodes":"11","size_leaf_vector":"1"}},{"base_weights":[6.107132E-3,9.474799E-2,-1.3240084E-1,1.648546E-1,-4.131049E-2,-7.7928066E-2,2.6382657E-2,1.4131557E-3,9.888677E-2,5.234159E-2,-4.3596994E-2],"categories":[],"categories_nodes":[],"categories_segments":[],"categories_sizes":[],"default_left":[0,0,0,0,0,0,0,0,0,0,0],"id":41,"left_children":[1,3,5,7,-1,-1,-1,9,-1,-1,-1],"loss_changes":[1.2732239E-1,1.250963E-1,1.3692632E-1,1.4179304E-1,0E0,0E0,0E0,1.18202046E-1,0E0,0E0,0E0],"parents":[2147483647,0,0,1,1,2,2,3,3,7,7],"right_children":[2,4,6,8,-1,-1,-1,10,-1,-1,-1],"split_conditions":[3.4011974E0,1E0,3.1257481E-3,2.013745E0,-4.131049E-2,-7.7928066E-2,2.6382657E-2,1.9967356E0,9.888677E-2,5.234159E-2,-4.3596994E-2],"split_indices":[26,25,23,6,0,0,0,0,0,0,0],"split_type":[0,0,0,0,0,0,0,0,0,0,0],"sum_hessian":[8.348645E0,5.283381E0,3.065264E0,4.2825594E0,1.000822E0,1.8291285E0,1.2361354E0,2.6562605E0,1.6262988E0,1.132083E0,1.5241776E0],"tree_param":{"num_deleted":"0","num_feature":"28","num_nodes":"11","size_leaf_vector":"1"}},{"base_weights":[5.824262E-3,-1.2752704E-1,1.0145332E-1,3.0304667E-2,-2.3782979E-1,1.6124232E-1,-2.9114513E-2,-2.0235999E-2,-8.548236E-2,8.890586E-2,-1.4441607E-2,2.5303138E-2,-3.337458E-2],"categories":[],"categories_nodes":[],"categories_segments":[],"categories_sizes":[],"default_left":[0,0,0,0,0,0,0,0,0,0,0,0,0],"id":42,"left_children":[1,3,5,-1,7,9,-1,-1,-1,-1,11,-1,-1],"loss_changes":[1.3172452E-1,1.3326114E-1,8.6640134E-2,0E0,6.63203E-3,1.22317255E-1,0E0,0E0,0E0,0E0,3.917538E-2,0E0,0E0],"parents":[2147483647,0,0,1,1,2,2,4,4,5,5,10,10],"right_children":[2,4,6,-1,8,10,-1,-1,-1,-1,12,-1,-1],"split_conditions":[3.1257481E-3,1.9208419E0,4E0,3.0304667E-2,2.723924E0,2E0,-2.9114513E-2,-2.0235999E-2,-8.548236E-2,8.890586E-2,3.654967E-2,2.5303138E-2,-3.337458E-2],"split_indices":[24,0,1,0,27,6,0,0,0,0,23,0,0],"split_type":[0,0,0,0,0,0,0,0,0,0,0,0,0],"sum_hessian":[8.314936E0,3.3332615E0,4.981674E0,1.1124693E0,2.220792E0,3.9727721E0,1.008902E0,1.0078236E0,1.2129686E0,1.8574438E0,2.1153283E0,1.1106863E0,1.0046421E0],"tree_param":{"num_deleted":"0","num_feature":"28","num_nodes":"13","size_leaf_vector":"1"}},{"base_weights":[1.7152653E-3,-9.5291026E-2,1.234105E-1,8.782294E-2,-1.1277216E-1,1.1695646E-1,-7.950751E-2,-4.2687196E-2,7.170288E-2,3.4239843E-2,-7.399025E-2],"categories":[],"categories_nodes":[],"categories_segments":[],"categories_sizes":[],"default_left":[0,0,0,0,0,0,0,0,0,0,0],"id":43,"left_children":[1,3,5,7,-1,-1,9,-1,-1,-1,-1],"loss_changes":[1.20208524E-1,3.2467657E-1,2.748595E-1,1.8170556E-1,0E0,0E0,1.378921E-1,0E0,0E0,0E0,0E0],"parents":[2147483647,0,0,1,1,2,2,3,3,6,6],"right_children":[2,4,6,8,-1,-1,10,-1,-1,-1,-1],"split_conditions":[3.3392258E0,3.1780539E0,3.465736E0,2.723924E0,-1.1277216E-1,1.1695646E-1,4E0,-4.2687196E-2,7.170288E-2,3.4239843E-2,-7.399025E-2],"split_indices":[26,26,26,27,0,0,1,0,0,0,0],"split_type":[0,0,0,0,0,0,0,0,0,0,0],"sum_hessian":[8.18651E0,4.6760693E0,3.5104406E0,3.2453656E0,1.4307035E0,1.11938E0,2.3910608E0,1.3101277E0,1.9352379E0,1.25456E0,1.1365007E0],"tree_param":{"num_deleted":"0","num_feature":"28","num_nodes":"11","size_leaf_vector":"1"}},{"base_weights":[3.298E-4,-4.8531286E-2,5.853262E-2,-8.0926254E-2,6.625603E-2,-6.1306793E-2,9.78694E-2,6.737139E-2,-2.0881057E-1,-9.406608E-2,-8.2336814E-4],"categories":[],"categories_nodes":[],"categories_segments":[],"categories_sizes":[],"default_left":[0,0,0,0,0,0,0,0,0,0,0],"id":44,"left_children":[1,3,-1,-1,5,7,-1,-1,9,-1,-1],"loss_changes":[9.559764E-2,2.2192994E-1,0E0,0E0,2.2207741E-1,2.5476056E-1,0E0,0E0,8.050895E-2,0E0,0E0],"parents":[2147483647,0,0,1,1,4,4,5,5,8,8],"right_children":[2,4,-1,-1,6,8,-1,-1,10,-1,-1],"split_conditions":[1.4544666E-2,2.5605372E-1,5.853262E-2,-8.0926254E-2,3.0626137E0,7.5E-1,9.78694E-2,6.737139E-2,5.1613655E0,-9.406608E-2,-8.2336814E-4],"split_indices":[22,6,0,0,1,6,0,0,6,0,0],"split_type":[0,0,0,0,0,0,0,0,0,0,0],"sum_hessian":[8.049888E0,7.0357738E0,1.0141134E0,1.942354E0,5.09342E0,3.929502E0,1.1639178E0,1.1595984E0,2.769904E0,1.4906111E0,1.2792928E0],"tree_param":{"num_deleted":"0","num_feature":"28","num_nodes":"11","size_leaf_vector":"1"}},{"base_weights":[5.3082844E-3,-1.2446619E-1,9.969143E-2,1.654167E-2,-7.51835E-2,3.4873178E-3,7.6521754E-2,5.632131E-2,-4.531928E-2],"categories":[],"categories_nodes":[],"categories_segments":[],"categories_sizes":[],"default_left":[0,0,0,0,0,0,0,0,0],"id":45,"left_children":[1,3,5,-1,-1,7,-1,-1,-1],"loss_changes":[1.2223756E-1,1.0943397E-1,8.501079E-2,0E0,0E0,1.5829572E-1,0E0,0E0,0E0],"parents":[2147483647,0,0,1,1,2,2,5,5],"right_children":[2,4,6,-1,-1,8,-1,-1,-1],"split_conditions":[3.1257481E-3,2.723924E0,7.118865E-2,1.654167E-2,-7.51835E-2,1E0,7.6521754E-2,5.632131E-2,-4.531928E-2],"split_indices":[24,27,2,0,0,6,0,0,0],"split_type":[0,0,0,0,0,0,0,0,0],"sum_hessian":[7.9667435E0,3.2202485E0,4.746495E0,1.5608357E0,1.6594129E0,3.562944E0,1.183551E0,1.5273598E0,2.035584E0],"tree_param":{"num_deleted":"0","num_feature":"28","num_nodes":"9","size_leaf_vector":"1"}},{"base_weights":[7.1173245E-3,9.1174126E-2,-1.2253304E-1,-3.5048097E-2,1.8208626E-1,-7.0665605E-2,2.3017552E-2,-8.682699E-3,2.9225594E-1,1.6125132E-1,-3.2181054E-2],"categories":[],"categories_nodes":[],"categories_segments":[],"categories_sizes":[],"default_left":[0,0,0,0,0,0,0,0,0,0,0],"id":46,"left_children":[1,3,5,-1,7,-1,-1,-1,9,-1,-1],"loss_changes":[1.0790115E-1,1.3393971E-1,1.0630043E-1,0E0,1.1393553E-1,0E0,0E0,0E0,3.585483E-1,0E0,0E0],"parents":[2147483647,0,0,1,1,2,2,4,4,8,8],"right_children":[2,4,6,-1,8,-1,-1,-1,10,-1,-1],"split_conditions":[3.4011974E0,1.0552343E0,3.1257481E-3,-3.5048097E-2,3.0965676E0,-7.0665605E-2,2.3017552E-2,-8.682699E-3,2.8267162E0,1.6125132E-1,-3.2181054E-2],"split_indices":[26,0,23,0,26,0,0,0,27,0,0],"split_type":[0,0,0,0,0,0,0,0,0,0,0],"sum_hessian":[7.875881E0,4.958126E0,2.917755E0,1.4212786E0,3.5368476E0,1.7455417E0,1.1722132E0,1.4660126E0,2.070835E0,1.0691713E0,1.0016638E0],"tree_param":{"num_deleted":"0","num_feature":"28","num_nodes":"11","size_leaf_vector":"1"}},{"base_weights":[9.479656E-3,-6.438745E-2,1.481611E-1,-1.8194093E-1,8.5392095E-2,6.854604E-2,-6.215783E-3,1.7894177E-2,-1.2214408E-1,9.0375826E-2,-4.7952607E-2],"categories":[],"categories_nodes":[],"categories_segments":[],"categories_sizes":[],"default_left":[0,0,0,0,0,0,0,0,0,0,0],"id":47,"left_children":[1,3,5,7,9,-1,-1,-1,-1,-1,-1],"loss_changes":[9.981703E-2,1.2905093E-1,5.0390102E-2,2.381897E-1,2.3425269E-1,0E0,0E0,0E0,0E0,0E0,0E0],"parents":[2147483647,0,0,1,1,2,2,3,3,4,4],"right_children":[2,4,6,8,10,-1,-1,-1,-1,-1,-1],"split_conditions":[2.823267E-4,2.013745E0,2.922043E0,4.975468E-1,2.8835897E0,6.854604E-2,-6.215783E-3,1.7894177E-2,-1.2214408E-1,9.0375826E-2,-4.7952607E-2],"split_indices":[25,6,27,6,27,0,0,0,0,0,0],"split_type":[0,0,0,0,0,0,0,0,0,0,0],"sum_hessian":[7.8127055E0,5.447091E0,2.3656144E0,2.9315548E0,2.5155363E0,1.3639292E0,1.0016854E0,1.7690077E0,1.162547E0,1.216402E0,1.2991341E0],"tree_param":{"num_deleted":"0","num_feature":"28","num_nodes":"11","size_leaf_vector":"1"}},{"base_weights":[6.3422783E-3,-1.0683061E-1,9.017351E-2,3.5541087E-2,-6.620838E-2,6.776659E-2,8.847685E-3,-4.0795144E-2,5.586521E-2],"categories":[],"categories_nodes":[],"categories_segments":[],"categories_sizes":[],"default_left":[0,0,0,0,0,0,0,0,0],"id":48,"left_children":[1,3,5,-1,-1,-1,7,-1,-1],"loss_changes":[9.235177E-2,1.3306549E-1,5.9267875E-2,0E0,0E0,0E0,1.4122358E-1,0E0,0E0],"parents":[2147483647,0,0,1,1,2,2,6,6],"right_children":[2,4,6,-1,-1,-1,8,-1,-1],"split_conditions":[3.1257481E-3,1.9208419E0,1E0,3.5541087E-2,-6.620838E-2,6.776659E-2,5.1613655E0,-4.0795144E-2,5.586521E-2],"split_indices":[24,0,5,0,0,0,6,0,0],"split_type":[0,0,0,0,0,0,0,0,0],"sum_hessian":[7.7187505E0,3.1678169E0,4.5509334E0,1.0499139E0,2.117903E0,1.0391846E0,3.511749E0,2.0616424E0,1.4501064E0],"tree_param":{"num_deleted":"0","num_feature":"28","num_nodes":"9","size_leaf_vector":"1"}},{"base_weights":[1.05484985E-2,-7.3935725E-2,1.1026996E-1,8.015232E-2,-9.289794E-2,1.0299029E-1,-7.174616E-2,-2.604205E-2,8.170281E-2,3.604433E-2,-7.174081E-2],"categories":[],"categories_nodes":[],"categories_segments":[],"categories_sizes":[],"default_left":[0,0,0,0,0,0,0,0,0,0,0],"id":49,"left_children":[1,3,5,7,-1,-1,9,-1,-1,-1,-1],"loss_changes":[8.047823E-2,2.1536809E-1,2.0865735E-1,1.5092537E-1,0E0,0E0,1.3354659E-1,0E0,0E0,0E0,0E0],"parents":[2147483647,0,0,1,1,2,2,3,3,6,6],"right_children":[2,4,6,8,-1,-1,10,-1,-1,-1,-1],"split_conditions":[3.3392258E0,3.1780539E0,3.465736E0,2.7750883E0,-9.289794E-2,1.0299029E-1,4E0,-2.604205E-2,8.170281E-2,3.604433E-2,-7.174081E-2],"split_indices":[26,26,26,27,0,0,1,0,0,0,0],"split_type":[0,0,0,0,0,0,0,0,0,0,0],"sum_hessian":[7.5847225E0,4.246043E0,3.3386788E0,2.9667277E0,1.2793157E0,1.075561E0,2.2631178E0,1.8809997E0,1.085728E0,1.1858734E0,1.0772444E0],"tree_param":{"num_deleted":"0","num_feature":"28","num_nodes":"11","size_leaf_vector":"1"}},{"base_weights":[1.1039518E-2,-6.161731E-2,1.4319235E-1,-7.962437E-2,3.2179702E-2,6.9640815E-2,-1.5466196E-3,6.9109835E-2,-8.0920584E-2,-6.510704E-2,2.367818E-2],"categories":[],"categories_nodes":[],"categories_segments":[],"categories_sizes":[],"default_left":[0,0,0,0,0,0,0,0,0,0,0],"id":50,"left_children":[1,3,5,-1,7,-1,-1,-1,9,-1,-1],"loss_changes":[9.01586E-2,1.2638734E-1,4.481692E-2,0E0,1.3326499E-1,0E0,0E0,0E0,1.0406039E-1,0E0,0E0],"parents":[2147483647,0,0,1,1,2,2,4,4,8,8],"right_children":[2,4,6,-1,8,-1,-1,-1,10,-1,-1],"split_conditions":[3.1257481E-3,9.271264E-2,3E0,-7.962437E-2,5E-1,6.9640815E-2,-1.5466196E-3,6.9109835E-2,3.3392258E0,-6.510704E-2,2.367818E-2],"split_indices":[23,6,0,0,6,0,0,0,26,0,0],"split_type":[0,0,0,0,0,0,0,0,0,0,0],"sum_hessian":[7.4708514E0,5.1649404E0,2.305911E0,1.0512246E0,4.113716E0,1.0884861E0,1.2174249E0,1.1179297E0,2.9957862E0,1.4248805E0,1.5709057E0],"tree_param":{"num_deleted":"0","num_feature":"28","num_nodes":"11","size_leaf_vector":"1"}},{"base_weights":[9.674668E-3,9.328144E-2,-1.1751183E-1,-2.797969E-2,2.0091602E-1,-6.617879E-2,2.0173602E-2,9.681471E-2,-3.0874729E-3],"categories":[],"categories_nodes":[],"categories_segments":[],"categories_sizes":[],"default_left":[0,0,0,0,0,0,0,0,0],"id":51,"left_children":[1,3,5,-1,7,-1,-1,-1,-1],"loss_changes":[9.997303E-2,1.3134362E-1,8.6494744E-2,0E0,1.0296117E-1,0E0,0E0,0E0,0E0],"parents":[2147483647,0,0,1,1,2,2,4,4],"right_children":[2,4,6,-1,8,-1,-1,-1,-1],"split_conditions":[3.4011974E0,3.0493448E0,3.1257481E-3,-2.797969E-2,2.8903718E0,-6.617879E-2,2.0173602E-2,9.681471E-2,-3.0874729E-3],"split_indices":[26,26,23,0,27,0,0,0,0],"split_type":[0,0,0,0,0,0,0,0,0],"sum_hessian":[7.3707232E0,4.6081243E0,2.762599E0,1.7348549E0,2.873269E0,1.6487253E0,1.1138737E0,1.4874998E0,1.3857694E0],"tree_param":{"num_deleted":"0","num_feature":"28","num_nodes":"9","size_leaf_vector":"1"}},{"base_weights":[9.150104E-3,-5.8898266E-2,1.3564958E-1,4.7008548E-2,-1.3168699E-1,5.648192E-3,5.4260872E-2,1.5039697E-2,-8.6278565E-2,5.8946904E-2,-4.3623425E-2],"categories":[],"categories_nodes":[],"categories_segments":[],"categories_sizes":[],"default_left":[0,0,0,0,0,0,0,0,0,0,0],"id":52,"left_children":[1,3,5,-1,7,-1,-1,9,-1,-1,-1],"loss_changes":[7.9755716E-2,1.1664637E-1,1.3598982E-2,0E0,1.2138842E-1,0E0,0E0,1.3299116E-1,0E0,0E0,0E0],"parents":[2147483647,0,0,1,1,2,2,4,4,7,7],"right_children":[2,4,6,-1,8,-1,-1,10,-1,-1,-1],"split_conditions":[2.823267E-4,1E0,2.0152206E0,4.7008548E-2,3.3964589E0,5.648192E-3,5.4260872E-2,2.7725887E0,-8.6278565E-2,5.8946904E-2,-4.3623425E-2],"split_indices":[25,5,0,0,26,0,0,27,0,0,0],"split_type":[0,0,0,0,0,0,0,0,0,0,0],"sum_hessian":[7.33707E0,5.11821E0,2.2188601E0,1.0008993E0,4.1173105E0,1.014452E0,1.204408E0,2.5865858E0,1.5307248E0,1.1084552E0,1.4781307E0],"tree_param":{"num_deleted":"0","num_feature":"28","num_nodes":"11","size_leaf_vector":"1"}},{"base_weights":[1.0637434E-2,-7.925895E-2,1.1607464E-1,5.5650704E-2,-8.348634E-2,-3.4148503E-2,8.3212495E-2,-2.8943969E-2,7.262489E-2],"categories":[],"categories_nodes":[],"categories_segments":[],"categories_sizes":[],"default_left":[0,0,0,0,0,0,0,0,0],"id":53,"left_children":[1,3,5,7,-1,-1,-1,-1,-1],"loss_changes":[8.798489E-2,1.5191388E-1,1.8847767E-1,1.3287885E-1,0E0,0E0,0E0,0E0,0E0],"parents":[2147483647,0,0,1,1,2,2,3,3],"right_children":[2,4,6,8,-1,-1,-1,-1,-1],"split_conditions":[3.3392258E0,3.1780539E0,2.013745E0,2.7750883E0,-8.348634E-2,-3.4148503E-2,8.3212495E-2,-2.8943969E-2,7.262489E-2],"split_indices":[26,26,6,27,0,0,0,0,0],"split_type":[0,0,0,0,0,0,0,0,0],"sum_hessian":[7.312029E0,4.080907E0,3.2311223E0,2.8615937E0,1.219313E0,1.4535999E0,1.7775222E0,1.8414476E0,1.020146E0],"tree_param":{"num_deleted":"0","num_feature":"28","num_nodes":"9","size_leaf_vector":"1"}},{"base_weights":[8.781509E-3,-1.0670308E-1,9.3890145E-2,2.7060166E-2,-6.20414E-2,-1.1501611E-2,1.4286767E-1,-8.315702E-3,8.729199E-2],"categories":[],"categories_nodes":[],"categories_segments":[],"categories_sizes":[],"default_left":[0,0,0,0,0,0,0,0,0],"id":54,"left_children":[1,3,5,-1,-1,-1,7,-1,-1],"loss_changes":[9.077034E-2,9.65876E-2,3.9555077E-2,0E0,0E0,0E0,1.1042103E-1,0E0,0E0],"parents":[2147483647,0,0,1,1,2,2,6,6],"right_children":[2,4,6,-1,-1,-1,8,-1,-1],"split_conditions":[3.1257481E-3,1.9208419E0,2.7750883E0,2.7060166E-2,-6.20414E-2,-1.1501611E-2,2.0152206E0,-8.315702E-3,8.729199E-2],"split_indices":[24,0,27,0,0,0,0,0,0],"split_type":[0,0,0,0,0,0,0,0,0],"sum_hessian":[7.215906E0,2.9539459E0,4.2619605E0,1.0289235E0,1.9250222E0,1.2106586E0,3.0513017E0,1.7957811E0,1.2555206E0],"tree_param":{"num_deleted":"0","num_feature":"28","num_nodes":"9","size_leaf_vector":"1"}},{"base_weights":[1.03145465E-2,-1.18089914E-1,7.295028E-2,-4.301952E-2,-1.0222664E-2,1.9201672E-1,-3.394491E-2,1.2215828E-1,-1.12979505E-2],"categories":[],"categories_nodes":[],"categories_segments":[],"categories_sizes":[],"default_left":[0,0,0,0,0,0,0,0,0],"id":55,"left_children":[1,3,5,-1,-1,7,-1,-1,-1],"loss_changes":[7.380653E-2,1.5763305E-3,1.5614435E-1,0E0,0E0,2.1648787E-1,0E0,0E0,0E0],"parents":[2147483647,0,0,1,1,2,2,5,5],"right_children":[2,4,6,-1,-1,8,-1,-1,-1],"split_conditions":[2.5605372E-1,2.5810745E0,5E0,-4.301952E-2,-1.0222664E-2,2E0,-3.394491E-2,1.2215828E-1,-1.12979505E-2],"split_indices":[6,0,6,0,0,0,0,0,0],"split_type":[0,0,0,0,0,0,0,0,0],"sum_hessian":[7.1057086E0,2.0394506E0,5.066258E0,1.0241148E0,1.0153359E0,3.070173E0,1.9960848E0,1.1860721E0,1.8841008E0],"tree_param":{"num_deleted":"0","num_feature":"28","num_nodes":"9","size_leaf_vector":"1"}},{"base_weights":[1.0548444E-2,-9.478248E-2,8.7327905E-2,1.3155551E-2,-5.4140728E-2,-1.106421E-2,1.3342308E-1,7.40542E-2,-5.5781234E-4],"categories":[],"categories_nodes":[],"categories_segments":[],"categories_sizes":[],"default_left":[0,0,0,0,0,0,0,0,0],"id":56,"left_children":[1,3,5,-1,-1,-1,7,-1,-1],"loss_changes":[7.3403776E-2,5.3942498E-2,3.456834E-2,0E0,0E0,0E0,6.1732456E-2,0E0,0E0],"parents":[2147483647,0,0,1,1,2,2,6,6],"right_children":[2,4,6,-1,-1,-1,8,-1,-1],"split_conditions":[3.1257481E-3,4.3516767E-1,2.5605372E-1,1.3155551E-2,-5.4140728E-2,-1.106421E-2,2.89026E0,7.40542E-2,-5.5781234E-4],"split_indices":[24,6,6,0,0,0,27,0,0],"split_type":[0,0,0,0,0,0,0,0,0],"sum_hessian":[7.0529985E0,2.8747532E0,4.1782455E0,1.2845998E0,1.5901535E0,1.1850082E0,2.9932373E0,1.1795725E0,1.8136647E0],"tree_param":{"num_deleted":"0","num_feature":"28","num_nodes":"9","size_leaf_vector":"1"}},{"base_weights":[1.0144834E-2,-7.216567E-2,1.0615887E-1,2.615933E-2,-5.981419E-2,-3.0706495E-2,7.682846E-2],"categories":[],"categories_nodes":[],"categories_segments":[],"categories_sizes":[],"default_left":[0,0,0,0,0,0,0],"id":57,"left_children":[1,3,5,-1,-1,-1,-1],"loss_changes":[7.06707E-2,1.1648431E-1,1.5391874E-1,0E0,0E0,0E0,0E0],"parents":[2147483647,0,0,1,1,2,2],"right_children":[2,4,6,-1,-1,-1,-1],"split_conditions":[3.3392258E0,5E-1,2.013745E0,2.615933E-2,-5.981419E-2,-3.0706495E-2,7.682846E-2],"split_indices":[26,6,6,0,0,0,0],"split_type":[0,0,0,0,0,0,0],"sum_hessian":[6.972918E0,3.8881152E0,3.0848029E0,1.8656104E0,2.0225048E0,1.4230833E0,1.6617196E0],"tree_param":{"num_deleted":"0","num_feature":"28","num_nodes":"7","size_leaf_vector":"1"}},{"base_weights":[8.733376E-3,8.253109E-2,-1.04794905E-1,-3.3312127E-2,2.0005271E-1,9.913298E-3,-6.591406E-2,8.692529E-2,4.844594E-3],"categories":[],"categories_nodes":[],"categories_segments":[],"categories_sizes":[],"default_left":[0,0,0,0,0,0,0,0,0],"id":58,"left_children":[1,3,5,-1,7,-1,-1,-1,-1],"loss_changes":[7.510177E-2,1.4429367E-1,6.373572E-2,0E0,5.6290984E-2,0E0,0E0,0E0,0E0],"parents":[2147483647,0,0,1,1,2,2,4,4],"right_children":[2,4,6,-1,8,-1,-1,-1,-1],"split_conditions":[3.4011974E0,3.0493448E0,4E0,-3.3312127E-2,2.8903718E0,9.913298E-3,-6.591406E-2,8.692529E-2,4.844594E-3],"split_indices":[26,26,1,0,27,0,0,0,0],"split_type":[0,0,0,0,0,0,0,0,0],"sum_hessian":[6.9317174E0,4.3664155E0,2.5653017E0,1.6703341E0,2.6960814E0,1.4902613E0,1.0750405E0,1.4253294E0,1.270752E0],"tree_param":{"num_deleted":"0","num_feature":"28","num_nodes":"9","size_leaf_vector":"1"}},{"base_weights":[6.3831965E-3,-5.9017546E-2,1.2948395E-1,-1.2807927E-1,3.5009965E-2,5.0569013E-2,8.046702E-3,3.0002356E-2,-2.4699315E-1,-9.073085E-2,-2.3308033E-2],"categories":[],"categories_nodes":[],"categories_segments":[],"categories_sizes":[],"default_left":[0,0,0,0,0,0,0,0,0,0,0],"id":59,"left_children":[1,3,5,7,-1,-1,-1,-1,9,-1,-1],"loss_changes":[7.119866E-2,8.5845664E-2,7.7234358E-3,1.5138455E-1,0E0,0E0,0E0,0E0,8.025616E-3,0E0,0E0],"parents":[2147483647,0,0,1,1,2,2,3,3,8,8],"right_children":[2,4,6,8,-1,-1,-1,-1,10,-1,-1],"split_conditions":[2.823267E-4,3.0626137E0,3.295837E0,4.975468E-1,3.5009965E-2,5.0569013E-2,8.046702E-3,3.0002356E-2,3.2168355E0,-9.073085E-2,-2.3308033E-2],"split_indices":[25,1,26,6,0,0,0,0,6,0,0],"split_type":[0,0,0,0,0,0,0,0,0,0,0],"sum_hessian":[6.8943934E0,4.8423395E0,2.0520537E0,3.670744E0,1.1715955E0,1.0213375E0,1.0307163E0,1.3124126E0,2.3583314E0,1.1841468E0,1.1741847E0],"tree_param":{"num_deleted":"0","num_feature":"28","num_nodes":"11","size_leaf_vector":"1"}},{"base_weights":[5.52702E-3,-9.420748E-2,8.225096E-2,-6.533912E-2,2.0153156E-2,-5.5309076E-2,6.427985E-2,4.1693006E-2,-6.700333E-2],"categories":[],"categories_nodes":[],"categories_segments":[],"categories_sizes":[],"default_left":[0,0,0,0,0,0,0,0,0],"id":60,"left_children":[1,3,5,-1,-1,7,-1,-1,-1],"loss_changes":[6.781417E-2,9.2002004E-2,1.02115124E-1,0E0,0E0,1.3645504E-1,0E0,0E0,0E0],"parents":[2147483647,0,0,1,1,2,2,5,5],"right_children":[2,4,6,-1,-1,8,-1,-1,-1],"split_conditions":[2.7750883E0,3.0965676E0,2.0152206E0,-6.533912E-2,2.0153156E-2,2E0,6.427985E-2,4.1693006E-2,-6.700333E-2],"split_indices":[27,26,0,0,0,0,0,0,0],"split_type":[0,0,0,0,0,0,0,0,0],"sum_hessian":[6.849624E0,2.8791292E0,3.9704952E0,1.4325327E0,1.4465964E0,2.2289577E0,1.7415375E0,1.1139356E0,1.1150221E0],"tree_param":{"num_deleted":"0","num_feature":"28","num_nodes":"9","size_leaf_vector":"1"}},{"base_weights":[3.1086558E-3,6.67245E-2,-3.7441947E-2,-3.62931E-2,1.9508299E-1,1.1644869E-1,-6.649042E-3],"categories":[],"categories_nodes":[],"categories_segments":[],"categories_sizes":[],"default_left":[0,0,0,0,0,0,0],"id":61,"left_children":[1,3,-1,-1,5,-1,-1],"loss_changes":[7.148126E-2,1.6417828E-1,0E0,0E0,1.70007E-1,0E0,0E0],"parents":[2147483647,0,0,1,1,4,4],"right_children":[2,4,-1,-1,6,-1,-1],"split_conditions":[5E0,2.5605372E-1,-3.7441947E-2,-3.62931E-2,2E0,1.1644869E-1,-6.649042E-3],"split_indices":[6,6,0,0,0,0,0],"split_type":[0,0,0,0,0,0,0],"sum_hessian":[6.760878E0,4.8347754E0,1.9261025E0,1.986857E0,2.8479185E0,1.0912901E0,1.7566285E0],"tree_param":{"num_deleted":"0","num_feature":"28","num_nodes":"7","size_leaf_vector":"1"}},{"base_weights":[7.161341E-3,-9.838937E-2,8.6237885E-2,8.155864E-3,-6.078047E-2,-1.1684233E-2,1.3370353E-1,-1.3655185E-3,7.302001E-2],"categories":[],"categories_nodes":[],"categories_segments":[],"categories_sizes":[],"default_left":[0,0,0,0,0,0,0,0,0],"id":62,"left_children":[1,3,5,-1,-1,-1,7,-1,-1],"loss_changes":[7.289142E-2,5.487162E-2,3.4587108E-2,0E0,0E0,0E0,5.890087E-2,0E0,0E0],"parents":[2147483647,0,0,1,1,2,2,6,6],"right_children":[2,4,6,-1,-1,-1,8,-1,-1],"split_conditions":[3.1257481E-3,3.0965676E0,2.7750883E0,8.155864E-3,-6.078047E-2,-1.1684233E-2,2.0152206E0,-1.3655185E-3,7.302001E-2],"split_indices":[24,26,27,0,0,0,0,0,0],"split_type":[0,0,0,0,0,0,0,0,0],"sum_hessian":[6.716512E0,2.772103E0,3.9444094E0,1.592395E0,1.179708E0,1.1337448E0,2.8106644E0,1.6675211E0,1.1431433E0],"tree_param":{"num_deleted":"0","num_feature":"28","num_nodes":"9","size_leaf_vector":"1"}},{"base_weights":[6.0343244E-3,-7.508025E-2,1.00918986E-1,4.1808344E-2,-7.3289864E-2,8.0304354E-2,-1.448702E-2,-2.9971527E-2,6.0895648E-2],"categories":[],"categories_nodes":[],"categories_segments":[],"categories_sizes":[],"default_left":[0,0,0,0,0,0,0,0,0],"id":63,"left_children":[1,3,5,7,-1,-1,-1,-1,-1],"loss_changes":[6.626624E-2,1.0287059E-1,1.1098791E-1,1.03065975E-1,0E0,0E0,0E0,0E0,0E0],"parents":[2147483647,0,0,1,1,2,2,3,3],"right_children":[2,4,6,8,-1,-1,-1,-1,-1],"split_conditions":[3.3392258E0,3.1780539E0,3.4965076E0,3.0493448E0,-7.3289864E-2,8.0304354E-2,-1.448702E-2,-2.9971527E-2,6.0895648E-2],"split_indices":[26,26,26,26,0,0,0,0,0],"split_type":[0,0,0,0,0,0,0,0,0],"sum_hessian":[6.6254134E0,3.6844165E0,2.9409966E0,2.6244829E0,1.0599335E0,1.0138619E0,1.9271349E0,1.598857E0,1.025626E0],"tree_param":{"num_deleted":"0","num_feature":"28","num_nodes":"9","size_leaf_vector":"1"}},{"base_weights":[7.3135584E-3,-5.2854948E-2,3.6108844E-2,5.189278E-2,-5.656879E-2,-3.3538856E-2,6.775115E-2],"categories":[],"categories_nodes":[],"categories_segments":[],"categories_sizes":[],"default_left":[0,0,0,0,0,0,0],"id":64,"left_children":[1,3,-1,5,-1,-1,-1],"loss_changes":[5.7902094E-2,8.995923E-2,0E0,1.3820855E-1,0E0,0E0,0E0],"parents":[2147483647,0,0,1,1,3,3],"right_children":[2,4,-1,6,-1,-1,-1],"split_conditions":[2.823267E-4,3.4011974E0,3.6108844E-2,2.013745E0,-5.656879E-2,-3.3538856E-2,6.775115E-2],"split_indices":[25,26,0,6,0,0,0],"split_type":[0,0,0,0,0,0,0],"sum_hessian":[6.5772266E0,4.6400833E0,1.9371432E0,2.967327E0,1.6727562E0,1.7127991E0,1.254528E0],"tree_param":{"num_deleted":"0","num_feature":"28","num_nodes":"7","size_leaf_vector":"1"}},{"base_weights":[6.9592968E-3,-7.204544E-2,9.7900905E-2,2.580543E-2,-6.010436E-2,-2.239311E-2,6.526417E-2],"categories":[],"categories_nodes":[],"categories_segments":[],"categories_sizes":[],"default_left":[0,0,0,0,0,0,0],"id":65,"left_children":[1,3,5,-1,-1,-1,-1],"loss_changes":[6.1221685E-2,1.10733904E-1,9.734588E-2,0E0,0E0,0E0,0E0],"parents":[2147483647,0,0,1,1,2,2],"right_children":[2,4,6,-1,-1,-1,-1],"split_conditions":[3.3392258E0,5E-1,2.013745E0,2.580543E-2,-6.010436E-2,-2.239311E-2,6.526417E-2],"split_indices":[26,6,6,0,0,0,0],"split_type":[0,0,0,0,0,0,0],"sum_hessian":[6.5392833E0,3.610487E0,2.928796E0,1.7652885E0,1.8451986E0,1.3533012E0,1.5754949E0],"tree_param":{"num_deleted":"0","num_feature":"28","num_nodes":"7","size_leaf_vector":"1"}},{"base_weights":[6.0203006E-3,6.77568E-2,-3.5689555E-2,-3.0188087E-2,1.8180043E-1,1.0340534E-1,-2.0762568E-3],"categories":[],"categories_nodes":[],"categories_segments":[],"categories_sizes":[],"default_left":[0,0,0,0,0,0,0],"id":66,"left_children":[1,3,-1,-1,5,-1,-1],"loss_changes":[6.5967076E-2,1.2699164E-1,0E0,0E0,1.1707673E-1,0E0,0E0],"parents":[2147483647,0,0,1,1,4,4],"right_children":[2,4,-1,-1,6,-1,-1],"split_conditions":[5E0,2.5605372E-1,-3.5689555E-2,-3.0188087E-2,2E0,1.0340534E-1,-2.0762568E-3],"split_indices":[6,6,0,0,0,0,0],"split_type":[0,0,0,0,0,0,0],"sum_hessian":[6.504552E0,4.660422E0,1.8441302E0,1.929374E0,2.7310479E0,1.0222932E0,1.7087548E0],"tree_param":{"num_deleted":"0","num_feature":"28","num_nodes":"7","size_leaf_vector":"1"}},{"base_weights":[9.174183E-3,-9.843529E-2,8.833136E-2,7.1847797E-3,-5.4362692E-2,-9.310677E-3,1.3283111E-1,6.922182E-2,-5.5399616E-3],"categories":[],"categories_nodes":[],"categories_segments":[],"categories_sizes":[],"default_left":[0,0,0,0,0,0,0,0,0],"id":67,"left_children":[1,3,5,-1,-1,-1,7,-1,-1],"loss_changes":[7.236401E-2,4.122298E-2,2.9798105E-2,0E0,0E0,0E0,5.9224896E-2,0E0,0E0],"parents":[2147483647,0,0,1,1,2,2,6,6],"right_children":[2,4,6,-1,-1,-1,8,-1,-1],"split_conditions":[3.1257481E-3,2.723924E0,2.7750883E0,7.1847797E-3,-5.4362692E-2,-9.310677E-3,3E0,6.922182E-2,-5.5399616E-3],"split_indices":[24,27,27,0,0,0,6,0,0],"split_type":[0,0,0,0,0,0,0,0,0],"sum_hessian":[6.4745984E0,2.6409042E0,3.8336945E0,1.3522332E0,1.288671E0,1.1232461E0,2.7104483E0,1.3267853E0,1.3836629E0],"tree_param":{"num_deleted":"0","num_feature":"28","num_nodes":"9","size_leaf_vector":"1"}},{"base_weights":[7.5570866E-3,-3.1794425E-2,6.369795E-2,-4.5691594E-2,1.62277E-1,9.8657615E-2,1.1127754E-2,4.625288E-2,-4.212484E-2],"categories":[],"categories_nodes":[],"categories_segments":[],"categories_sizes":[],"default_left":[0,0,0,0,0,0,0,0,0],"id":68,"left_children":[1,-1,3,-1,5,-1,7,-1,-1],"loss_changes":[5.4033834E-2,0E0,1.4370747E-1,0E0,1.0514292E-1,0E0,9.3198985E-2,0E0,0E0],"parents":[2147483647,0,0,2,2,4,4,6,6],"right_children":[2,-1,4,-1,6,-1,8,-1,-1],"split_conditions":[2.723924E0,-3.1794425E-2,3.1257481E-3,-4.5691594E-2,2.8903718E0,9.8657615E-2,3E0,4.625288E-2,-4.212484E-2],"split_indices":[27,0,24,0,27,0,6,0,0],"split_type":[0,0,0,0,0,0,0,0,0],"sum_hessian":[6.4179373E0,1.8297334E0,4.588204E0,1.2669959E0,3.321208E0,1.0206391E0,2.3005688E0,1.1745204E0,1.1260486E0],"tree_param":{"num_deleted":"0","num_feature":"28","num_nodes":"9","size_leaf_vector":"1"}},{"base_weights":[9.190587E-3,7.886167E-2,-9.515098E-2,-3.8466096E-2,1.8293992E-1,-6.2172573E-2,1.6806938E-2,-4.407431E-4,8.057812E-2],"categories":[],"categories_nodes":[],"categories_segments":[],"categories_sizes":[],"default_left":[0,0,0,0,0,0,0,0,0],"id":69,"left_children":[1,3,5,-1,7,-1,-1,-1,-1],"loss_changes":[6.0584053E-2,1.2960485E-1,6.882836E-2,0E0,5.867575E-2,0E0,0E0,0E0,0E0],"parents":[2147483647,0,0,1,1,2,2,4,4],"right_children":[2,4,6,-1,8,-1,-1,-1,-1],"split_conditions":[3.4011974E0,1.0552343E0,3.5948877E0,-3.8466096E-2,3.0965676E0,-6.2172573E-2,1.6806938E-2,-4.407431E-4,8.057812E-2],"split_indices":[26,0,26,0,26,0,0,0,0],"split_type":[0,0,0,0,0,0,0,0,0],"sum_hessian":[6.3016896E0,3.9250484E0,2.3766415E0,1.2352802E0,2.689768E0,1.1517626E0,1.2248789E0,1.164816E0,1.5249522E0],"tree_param":{"num_deleted":"0","num_feature":"28","num_nodes":"9","size_leaf_vector":"1"}},{"base_weights":[5.9511364E-3,5.7919525E-2,-2.97066E-2,-2.7373472E-2,1.6009273E-1,6.2551424E-2,8.624822E-3],"categories":[],"categories_nodes":[],"categories_segments":[],"categories_sizes":[],"default_left":[0,0,0,0,0,0,0],"id":70,"left_children":[1,3,-1,-1,5,-1,-1],"loss_changes":[4.5309823E-2,9.8174125E-2,0E0,0E0,1.7005824E-2,0E0,0E0],"parents":[2147483647,0,0,1,1,4,4],"right_children":[2,4,-1,-1,6,-1,-1],"split_conditions":[5E0,2.5605372E-1,-2.97066E-2,-2.7373472E-2,1E0,6.2551424E-2,8.624822E-3],"split_indices":[6,6,0,0,24,0,0],"split_type":[0,0,0,0,0,0,0],"sum_hessian":[6.2543445E0,4.4831457E0,1.7711986E0,1.8659588E0,2.617187E0,1.4830638E0,1.1341233E0],"tree_param":{"num_deleted":"0","num_feature":"28","num_nodes":"7","size_leaf_vector":"1"}},{"base_weights":[6.0180295E-3,-8.790174E-2,7.894279E-2,-6.041916E-2,1.9161494E-2,1.7969061E-1,-2.800751E-2,9.291707E-2,-7.9208445E-3],"categories":[],"categories_nodes":[],"categories_segments":[],"categories_sizes":[],"default_left":[0,0,0,0,0,0,0,0,0],"id":71,"left_children":[1,3,5,-1,-1,7,-1,-1,-1],"loss_changes":[5.6744095E-2,7.576299E-2,9.697846E-2,0E0,0E0,9.54728E-2,0E0,0E0,0E0],"parents":[2147483647,0,0,1,1,2,2,5,5],"right_children":[2,4,6,-1,-1,8,-1,-1,-1],"split_conditions":[2.7750883E0,3.0965676E0,2.944439E0,-6.041916E-2,1.9161494E-2,3E0,-2.800751E-2,9.291707E-2,-7.9208445E-3],"split_indices":[27,26,27,0,0,6,0,0,0],"split_type":[0,0,0,0,0,0,0,0,0],"sum_hessian":[6.2717657E0,2.6515107E0,3.6202552E0,1.3299901E0,1.3215206E0,2.2574143E0,1.3628408E0,1.0758101E0,1.1816043E0],"tree_param":{"num_deleted":"0","num_feature":"28","num_nodes":"9","size_leaf_vector":"1"}},{"base_weights":[6.5932553E-3,-6.470938E-2,8.661755E-2,2.7226573E-2,-5.8103148E-2,-2.5653243E-2,6.2269907E-2],"categories":[],"categories_nodes":[],"categories_segments":[],"categories_sizes":[],"default_left":[0,0,0,0,0,0,0],"id":72,"left_children":[1,3,5,-1,-1,-1,-1],"loss_changes":[4.6670906E-2,1.05362E-1,9.725037E-2,0E0,0E0,0E0,0E0],"parents":[2147483647,0,0,1,1,2,2],"right_children":[2,4,6,-1,-1,-1,-1],"split_conditions":[3.3392258E0,5E-1,2.013745E0,2.7226573E-2,-5.8103148E-2,-2.5653243E-2,6.2269907E-2],"split_indices":[26,6,6,0,0,0,0],"split_type":[0,0,0,0,0,0,0],"sum_hessian":[6.1970463E0,3.3783095E0,2.818737E0,1.6661448E0,1.7121645E0,1.2841699E0,1.5345671E0],"tree_param":{"num_deleted":"0","num_feature":"28","num_nodes":"7","size_leaf_vector":"1"}},{"base_weights":[5.427383E-3,-7.891564E-2,6.935775E-2,1.5187972E-2,-5.9077594E-2,-4.1699153E-3,4.5577448E-2,2.9350344E-2,-3.74904E-2],"categories":[],"categories_nodes":[],"categories_segments":[],"categories_sizes":[],"default_left":[0,0,0,0,0,0,0,0,0],"id":73,"left_children":[1,3,5,-1,-1,7,-1,-1,-1],"loss_changes":[4.4089623E-2,6.4325355E-2,2.8596532E-2,0E0,0E0,5.4239858E-2,0E0,0E0,0E0],"parents":[2147483647,0,0,1,1,2,2,5,5],"right_children":[2,4,6,-1,-1,8,-1,-1,-1],"split_conditions":[3.1257481E-3,3.0965676E0,5.1613655E0,1.5187972E-2,-5.9077594E-2,9.255685E-1,4.5577448E-2,2.9350344E-2,-3.74904E-2],"split_indices":[24,26,6,0,0,25,0,0,0],"split_type":[0,0,0,0,0,0,0,0,0],"sum_hessian":[6.1616526E0,2.5556269E0,3.6060257E0,1.4904827E0,1.0651442E0,2.4096656E0,1.1963601E0,1.4095292E0,1.0001364E0],"tree_param":{"num_deleted":"0","num_feature":"28","num_nodes":"9","size_leaf_vector":"1"}},{"base_weights":[2.84046E-3,6.601313E-2,-8.949882E-2,-3.0719357E-2,1.5080579E-1,-5.1251955E-2,9.117718E-3,-4.564861E-3,6.963355E-2],"categories":[],"categories_nodes":[],"categories_segments":[],"categories_sizes":[],"default_left":[0,0,0,0,0,0,0,0,0],"id":74,"left_children":[1,3,5,-1,7,-1,-1,-1,-1],"loss_changes":[4.725454E-2,8.3760396E-2,3.7411086E-2,0E0,5.1944144E-2,0E0,0E0,0E0,0E0],"parents":[2147483647,0,0,1,1,2,2,4,4],"right_children":[2,4,6,-1,8,-1,-1,-1,-1],"split_conditions":[3.4011974E0,1.0552343E0,3.5948877E0,-3.0719357E-2,3.0965676E0,-5.1251955E-2,9.117718E-3,-4.564861E-3,6.963355E-2],"split_indices":[26,0,26,0,26,0,0,0,0],"split_type":[0,0,0,0,0,0,0,0,0],"sum_hessian":[6.08798E0,3.784184E0,2.3037958E0,1.197715E0,2.586469E0,1.1193845E0,1.1844112E0,1.1174853E0,1.4689837E0],"tree_param":{"num_deleted":"0","num_feature":"28","num_nodes":"9","size_leaf_vector":"1"}},{"base_weights":[8.8660896E-4,5.823784E-2,-3.4056053E-2,-5.8826674E-2,1.6532075E-1,-4.0343724E-2,1.3214329E-2,8.563059E-2,-1.0797182E-2],"categories":[],"categories_nodes":[],"categories_segments":[],"categories_sizes":[],"default_left":[0,0,0,0,0,0,0,0,0],"id":75,"left_children":[1,3,-1,5,7,-1,-1,-1,-1],"loss_changes":[5.2909296E-2,7.692859E-2,0E0,3.1596165E-2,8.432093E-2,0E0,0E0,0E0,0E0],"parents":[2147483647,0,0,1,1,3,3,4,4],"right_children":[2,4,-1,6,8,-1,-1,-1,-1],"split_conditions":[5E0,2.835893E0,-3.4056053E-2,3.0493448E0,2.9414108E0,-4.0343724E-2,1.3214329E-2,8.563059E-2,-1.0797182E-2],"split_indices":[6,27,0,26,27,0,0,0,0],"split_type":[0,0,0,0,0,0,0,0,0],"sum_hessian":[6.0561676E0,4.360994E0,1.6951741E0,2.2986841E0,2.0623095E0,1.1475654E0,1.1511188E0,1.0299183E0,1.0323913E0],"tree_param":{"num_deleted":"0","num_feature":"28","num_nodes":"9","size_leaf_vector":"1"}},{"base_weights":[2.7781462E-3,-5.4827336E-2,3.3214703E-2,3.5834502E-2,-4.9764786E-2,-2.8119212E-2,5.1957387E-2],"categories":[],"categories_nodes":[],"categories_segments":[],"categories_sizes":[],"default_left":[0,0,0,0,0,0,0],"id":76,"left_children":[1,3,-1,5,-1,-1,-1],"loss_changes":[4.9594745E-2,5.8632106E-2,0E0,8.214057E-2,0E0,0E0,0E0],"parents":[2147483647,0,0,1,1,3,3],"right_children":[2,4,-1,6,-1,-1,-1],"split_conditions":[2.823267E-4,3.4011974E0,3.3214703E-2,2.013745E0,-4.9764786E-2,-2.8119212E-2,5.1957387E-2],"split_indices":[25,26,0,6,0,0,0],"split_type":[0,0,0,0,0,0,0],"sum_hessian":[5.9999924E0,4.2329454E0,1.7670468E0,2.7033486E0,1.5295966E0,1.5545716E0,1.148777E0],"tree_param":{"num_deleted":"0","num_feature":"28","num_nodes":"7","size_leaf_vector":"1"}},{"base_weights":[2.9993698E-3,-7.112186E-2,8.728746E-2,2.492354E-2,-5.8794193E-2,-1.5864925E-2,5.400845E-2],"categories":[],"categories_nodes":[],"categories_segments":[],"categories_sizes":[],"default_left":[0,0,0,0,0,0,0],"id":77,"left_children":[1,3,5,-1,-1,-1,-1],"loss_changes":[4.9761046E-2,9.8307386E-2,5.776006E-2,0E0,0E0,0E0,0E0],"parents":[2147483647,0,0,1,1,2,2],"right_children":[2,4,6,-1,-1,-1,-1],"split_conditions":[3.3392258E0,5E-1,2.013745E0,2.492354E-2,-5.8794193E-2,-1.5864925E-2,5.400845E-2],"split_indices":[26,6,6,0,0,0,0],"split_type":[0,0,0,0,0,0,0],"sum_hessian":[5.9712276E0,3.2603488E0,2.7108788E0,1.6084889E0,1.6518599E0,1.2505467E0,1.460332E0],"tree_param":{"num_deleted":"0","num_feature":"28","num_nodes":"7","size_leaf_vector":"1"}},{"base_weights":[2.68985E-3,5.707642E-2,-3.161498E-2,-2.520218E-2,1.5268618E-1,5.8344766E-2,9.287673E-3],"categories":[],"categories_nodes":[],"categories_segments":[],"categories_sizes":[],"default_left":[0,0,0,0,0,0,0],"id":78,"left_children":[1,3,-1,-1,5,-1,-1],"loss_changes":[4.680927E-2,8.385575E-2,0E0,0E0,1.1753641E-2,0E0,0E0],"parents":[2147483647,0,0,1,1,4,4],"right_children":[2,4,-1,-1,6,-1,-1],"split_conditions":[5E0,2.5605372E-1,-3.161498E-2,-2.520218E-2,1E0,5.8344766E-2,9.287673E-3],"split_indices":[6,6,0,0,24,0,0],"split_type":[0,0,0,0,0,0,0],"sum_hessian":[5.9405036E0,4.265707E0,1.6747966E0,1.7721053E0,2.4936016E0,1.4113191E0,1.0822824E0],"tree_param":{"num_deleted":"0","num_feature":"28","num_nodes":"7","size_leaf_vector":"1"}},{"base_weights":[3.3753607E-3,-8.62502E-2,7.0971504E-2,1.1968601E-2,-5.895998E-2,4.3889848E-3,4.2468686E-2,2.9711561E-2,-3.2739863E-2],"categories":[],"categories_nodes":[],"categories_segments":[],"categories_sizes":[],"default_left":[0,0,0,0,0,0,0,0,0],"id":79,"left_children":[1,3,5,-1,-1,7,-1,-1,-1],"loss_changes":[4.8250046E-2,5.5713125E-2,2.0588808E-2,0E0,0E0,4.6849284E-2,0E0,0E0,0E0],"parents":[2147483647,0,0,1,1,2,2,5,5],"right_children":[2,4,6,-1,-1,8,-1,-1,-1],"split_conditions":[3.1257481E-3,3.0965676E0,5.1613655E0,1.1968601E-2,-5.895998E-2,7.627732E-1,4.2468686E-2,2.9711561E-2,-3.2739863E-2],"split_indices":[24,26,6,0,0,6,0,0,0],"split_type":[0,0,0,0,0,0,0,0,0],"sum_hessian":[5.9538383E0,2.4411545E0,3.512684E0,1.4363985E0,1.0047559E0,2.3542693E0,1.1584148E0,1.3534248E0,1.0008445E0],"tree_param":{"num_deleted":"0","num_feature":"28","num_nodes":"9","size_leaf_vector":"1"}},{"base_weights":[1.2052656E-3,-5.2111544E-2,3.024525E-2,-1.2035004E-1,1.732692E-2,1.5392464E-2,-7.4851274E-2],"categories":[],"categories_nodes":[],"categories_segments":[],"categories_sizes":[],"default_left":[0,0,0,0,0,0,0],"id":80,"left_children":[1,3,-1,5,-1,-1,-1],"loss_changes":[4.1821428E-2,4.5517035E-2,0E0,9.0341866E-2,0E0,0E0,0E0],"parents":[2147483647,0,0,1,1,3,3],"right_children":[2,4,-1,6,-1,-1,-1],"split_conditions":[3.1257481E-3,2.0152206E0,3.024525E-2,1.9497999E0,1.732692E-2,1.5392464E-2,-7.4851274E-2],"split_indices":[23,0,0,0,0,0,0],"split_type":[0,0,0,0,0,0,0],"sum_hessian":[5.885263E0,4.144045E0,1.7412176E0,2.4974706E0,1.6465745E0,1.3310779E0,1.1663927E0],